<?xml version="1.0"?>
<opencv_storage>
<opencv_ml_svm>
  <format>3</format>
  <svmType>C_SVC</svmType>
  <kernel>
    <type>LINEAR</type></kernel>
  <C>1.</C>
  <term_criteria><iterations>1000</iterations></term_criteria>
  <var_count>1200</var_count>
  <class_count>2</class_count>
  <class_labels type_id="opencv-matrix">
    <rows>2</rows>
    <cols>1</cols>
    <dt>i</dt>
    <data>
      0 1</data></class_labels>
  <sv_total>1</sv_total>
  <support_vectors>
    <_>
      5.38544839e-07 5.38544839e-07 5.38544839e-07 3.40136296e-07
      3.40136296e-07 3.40136296e-07 -8.40594168e-07 -8.40594168e-07
      -8.40594168e-07 6.15229112e-07 6.15229112e-07 6.15229112e-07
      -1.43918362e-08 -1.43918362e-08 -1.43918362e-08 3.52811327e-07
      3.52811327e-07 3.52811327e-07 3.14120314e-07 3.14120314e-07
      3.14120314e-07 1.84459196e-07 1.84459196e-07 1.84459196e-07
      -2.55258499e-07 -2.55258499e-07 -2.55258499e-07 -6.19619982e-08
      -6.19619982e-08 -6.19619982e-08 3.05096052e-07 3.05096052e-07
      3.05096052e-07 3.65420277e-07 3.65420277e-07 3.65420277e-07
      -1.17996660e-06 -1.17996660e-06 -1.17996660e-06 -4.76175956e-07
      -4.76175956e-07 -4.76175956e-07 1.92386679e-07 1.92386679e-07
      1.92386679e-07 -6.44768477e-07 -6.44768477e-07 -6.44768477e-07
      1.02614571e-07 1.02614571e-07 1.02614571e-07 5.80969527e-07
      5.80969527e-07 5.80969527e-07 1.17199619e-07 1.17199619e-07
      1.17199619e-07 1.39652613e-07 1.39652613e-07 1.39652613e-07
      -8.15276110e-07 -8.15276110e-07 -8.15276110e-07 7.30261661e-07
      7.30261661e-07 7.30261661e-07 1.07714740e-07 1.07714740e-07
      1.07714740e-07 2.53285720e-07 2.53285720e-07 2.53285720e-07
      2.24925088e-07 2.24925088e-07 2.24925088e-07 4.53098465e-07
      4.53098465e-07 4.53098465e-07 -2.12088523e-07 -2.12088523e-07
      -2.12088523e-07 -5.04069817e-07 -5.04069817e-07 -5.04069817e-07
      -7.38078597e-07 -7.38078597e-07 -7.38078597e-07 -1.00067120e-06
      -1.00067120e-06 -1.00067120e-06 -1.20725679e-06 -1.20725679e-06
      -1.20725679e-06 2.50778527e-07 2.50778527e-07 2.50778527e-07
      -2.30276115e-07 -2.30276115e-07 -2.30276115e-07 1.87467958e-06
      1.87467958e-06 1.87467958e-06 6.90584727e-07 6.90584727e-07
      6.90584727e-07 -9.26989969e-07 -9.26989969e-07 -9.26989969e-07
      1.46817314e-07 1.46817314e-07 1.46817314e-07 0. 0. 0.
      7.46219015e-08 7.46219015e-08 7.46219015e-08 6.54917244e-07
      6.54917244e-07 6.54917244e-07 5.63496144e-07 5.63496144e-07
      5.63496144e-07 9.56743179e-07 9.56743179e-07 9.56743179e-07
      -5.31584078e-07 -5.31584078e-07 -5.31584078e-07 7.85635393e-07
      7.85635393e-07 7.85635393e-07 -4.16707991e-07 -4.16707991e-07
      -4.16707991e-07 -3.56957770e-08 -3.56957770e-08 -3.56957770e-08
      8.68729899e-07 8.68729899e-07 8.68729899e-07 7.11168525e-07
      7.11168525e-07 7.11168525e-07 4.73806676e-06 4.73806676e-06
      4.73806676e-06 1.28110074e-07 1.28110074e-07 1.28110074e-07
      -1.72367272e-05 -1.72367272e-05 -1.72367272e-05 3.09948191e-05
      3.09948191e-05 3.09948191e-05 1.35773880e-05 1.35773880e-05
      1.35773880e-05 1.31201195e-05 1.31201195e-05 1.31201195e-05
      8.36319396e-06 8.36319396e-06 8.36319396e-06 2.10919691e-08
      2.10919691e-08 2.10919691e-08 4.47873816e-07 4.47873816e-07
      4.47873816e-07 1.62008135e-07 1.62008135e-07 1.62008135e-07
      4.77596245e-07 4.77596245e-07 4.77596245e-07 5.73391105e-07
      5.73391105e-07 5.73391105e-07 4.70321027e-07 4.70321027e-07
      4.70321027e-07 2.35458614e-07 2.35458614e-07 2.35458614e-07
      7.18685271e-07 7.18685271e-07 7.18685271e-07 5.37675078e-07
      5.37675078e-07 5.37675078e-07 3.63111809e-07 3.63111809e-07
      3.63111809e-07 4.66458823e-06 4.66458823e-06 4.66458823e-06
      2.13816134e-06 2.13816134e-06 2.13816134e-06 2.54082215e-06
      2.54082215e-06 2.54082215e-06 1.16118426e-05 1.16118426e-05
      1.16118426e-05 -6.79673894e-06 -6.79673894e-06 -6.79673894e-06
      1.69165269e-05 1.69165269e-05 1.69165269e-05 7.32457484e-05
      7.32457484e-05 7.32457484e-05 8.43863600e-05 8.43863600e-05
      8.43863600e-05 -2.68354324e-06 -2.68354324e-06 -2.68354324e-06
      -3.10760952e-05 -3.10760952e-05 -3.10760952e-05 -1.35777655e-05
      -1.35777655e-05 -1.35777655e-05 -5.98787608e-07 -5.98787608e-07
      -5.98787608e-07 -3.62418255e-08 -3.62418255e-08 -3.62418255e-08
      4.49606574e-07 4.49606574e-07 4.49606574e-07 1.88929334e-07
      1.88929334e-07 1.88929334e-07 4.63496406e-07 4.63496406e-07
      4.63496406e-07 -3.22650010e-07 -3.22650010e-07 -3.22650010e-07
      -2.43186342e-08 -2.43186342e-08 -2.43186342e-08 1.49433208e-06
      1.49433208e-06 1.49433208e-06 5.25300720e-06 5.25300720e-06
      5.25300720e-06 8.13696352e-06 8.13696352e-06 8.13696352e-06
      6.61888089e-06 6.61888089e-06 6.61888089e-06 8.12347935e-06
      8.12347935e-06 8.12347935e-06 3.79442135e-05 3.79442135e-05
      3.79442135e-05 1.95500470e-05 1.95500470e-05 1.95500470e-05
      4.19044773e-06 4.19044773e-06 4.19044773e-06 4.64022560e-05
      4.64022560e-05 4.64022560e-05 5.77201936e-05 5.77201936e-05
      5.77201936e-05 -2.55143859e-05 -2.55143859e-05 -2.55143859e-05
      -7.53847689e-06 -7.53847689e-06 -7.53847689e-06 -6.80802395e-06
      -6.80802395e-06 -6.80802395e-06 -1.94390239e-07 -1.94390239e-07
      -1.94390239e-07 2.69569597e-07 2.69569597e-07 2.69569597e-07
      1.40919681e-07 1.40919681e-07 1.40919681e-07 2.66853505e-07
      2.66853505e-07 2.66853505e-07 4.41116610e-09 4.41116610e-09
      4.41116610e-09 -1.04092749e-07 -1.04092749e-07 -1.04092749e-07
      8.36109052e-07 8.36109052e-07 8.36109052e-07 1.67911912e-06
      1.67911912e-06 1.67911912e-06 -6.15395766e-06 -6.15395766e-06
      -6.15395766e-06 -3.35556142e-05 -3.35556142e-05 -3.35556142e-05
      1.91790491e-06 1.91790491e-06 1.91790491e-06 2.64575956e-05
      2.64575956e-05 2.64575956e-05 3.25450274e-05 3.25450274e-05
      3.25450274e-05 6.10822826e-05 6.10822826e-05 6.10822826e-05
      6.99708039e-07 6.99708039e-07 6.99708039e-07 -4.51766682e-05
      -4.51766682e-05 -4.51766682e-05 -5.13331179e-05 -5.13331179e-05
      -5.13331179e-05 -9.32274543e-06 -9.32274543e-06 -9.32274543e-06
      5.05742901e-05 5.05742901e-05 5.05742901e-05 2.62765625e-05
      2.62765625e-05 2.62765625e-05 1.75915247e-07 1.75915247e-07
      1.75915247e-07 4.60731115e-07 4.60731115e-07 4.60731115e-07
      2.83338835e-07 2.83338835e-07 2.83338835e-07 -4.69888803e-08
      -4.69888803e-08 -4.69888803e-08 7.37348444e-07 7.37348444e-07
      7.37348444e-07 2.41382367e-07 2.41382367e-07 2.41382367e-07
      6.01343004e-07 6.01343004e-07 6.01343004e-07 2.26997781e-06
      2.26997781e-06 2.26997781e-06 -2.04796306e-05 -2.04796306e-05
      -2.04796306e-05 -6.69689471e-05 -6.69689471e-05 -6.69689471e-05
      -2.35546413e-05 -2.35546413e-05 -2.35546413e-05 2.06142849e-05
      2.06142849e-05 2.06142849e-05 -1.34033862e-05 -1.34033862e-05
      -1.34033862e-05 5.34751125e-05 5.34751125e-05 5.34751125e-05
      -2.86200248e-05 -2.86200248e-05 -2.86200248e-05 -6.03959415e-05
      -6.03959415e-05 -6.03959415e-05 2.26874436e-05 2.26874436e-05
      2.26874436e-05 4.18327036e-05 4.18327036e-05 4.18327036e-05
      7.66313096e-05 7.66313096e-05 7.66313096e-05 6.01603606e-05
      6.01603606e-05 6.01603606e-05 8.76010290e-06 8.76010290e-06
      8.76010290e-06 1.09209644e-07 1.09209644e-07 1.09209644e-07
      4.16679995e-07 4.16679995e-07 4.16679995e-07 2.73024110e-08
      2.73024110e-08 2.73024110e-08 3.86978371e-07 3.86978371e-07
      3.86978371e-07 3.23975058e-07 3.23975058e-07 3.23975058e-07
      6.14570013e-07 6.14570013e-07 6.14570013e-07 4.68934195e-06
      4.68934195e-06 4.68934195e-06 -3.07288610e-05 -3.07288610e-05
      -3.07288610e-05 -5.09634156e-05 -5.09634156e-05 -5.09634156e-05
      1.13704682e-05 1.13704682e-05 1.13704682e-05 -1.32220421e-05
      -1.32220421e-05 -1.32220421e-05 -8.71021348e-06 -8.71021348e-06
      -8.71021348e-06 4.83421027e-05 4.83421027e-05 4.83421027e-05
      -1.27342137e-04 -1.27342137e-04 -1.27342137e-04 -1.34010072e-04
      -1.34010072e-04 -1.34010072e-04 6.57759156e-05 6.57759156e-05
      6.57759156e-05 1.22034347e-04 1.22034347e-04 1.22034347e-04
      9.25378190e-05 9.25378190e-05 9.25378190e-05 7.20673561e-05
      7.20673561e-05 7.20673561e-05 3.27316593e-05 3.27316593e-05
      3.27316593e-05 1.69795373e-06 1.69795373e-06 1.69795373e-06
      5.46048220e-08 5.46048220e-08 5.46048220e-08 4.07271415e-07
      4.07271415e-07 4.07271415e-07 -4.42662042e-07 -4.42662042e-07
      -4.42662042e-07 1.26566226e-06 1.26566226e-06 1.26566226e-06
      -1.00595017e-07 -1.00595017e-07 -1.00595017e-07 6.29202896e-06
      6.29202896e-06 6.29202896e-06 -2.19561516e-05 -2.19561516e-05
      -2.19561516e-05 -5.79233620e-06 -5.79233620e-06 -5.79233620e-06
      1.79283707e-05 1.79283707e-05 1.79283707e-05 -2.77072231e-05
      -2.77072231e-05 -2.77072231e-05 6.94025366e-05 6.94025366e-05
      6.94025366e-05 2.56561943e-05 2.56561943e-05 2.56561943e-05
      -2.09464139e-04 -2.09464139e-04 -2.09464139e-04 -1.54053574e-04
      -1.54053574e-04 -1.54053574e-04 5.63521826e-05 5.63521826e-05
      5.63521826e-05 1.18943746e-04 1.18943746e-04 1.18943746e-04
      1.01772479e-04 1.01772479e-04 1.01772479e-04 9.06435380e-05
      9.06435380e-05 9.06435380e-05 4.50258121e-05 4.50258121e-05
      4.50258121e-05 9.12823725e-06 9.12823725e-06 9.12823725e-06
      7.91370738e-08 7.91370738e-08 7.91370738e-08 2.58948120e-07
      2.58948120e-07 2.58948120e-07 5.03524063e-07 5.03524063e-07
      5.03524063e-07 3.19118350e-08 3.19118350e-08 3.19118350e-08
      7.31663590e-07 7.31663590e-07 7.31663590e-07 5.81676477e-06
      5.81676477e-06 5.81676477e-06 3.60417544e-05 3.60417544e-05
      3.60417544e-05 5.02618968e-05 5.02618968e-05 5.02618968e-05
      3.04955647e-05 3.04955647e-05 3.04955647e-05 6.04094566e-05
      6.04094566e-05 6.04094566e-05 1.51209868e-04 1.51209868e-04
      1.51209868e-04 -3.52722636e-05 -3.52722636e-05 -3.52722636e-05
      -2.38087101e-04 -2.38087101e-04 -2.38087101e-04 -1.57061484e-04
      -1.57061484e-04 -1.57061484e-04 3.38154859e-05 3.38154859e-05
      3.38154859e-05 1.00529767e-04 1.00529767e-04 1.00529767e-04
      7.33587003e-05 7.33587003e-05 7.33587003e-05 1.01094352e-04
      1.01094352e-04 1.01094352e-04 5.31893093e-05 5.31893093e-05
      5.31893093e-05 1.84611999e-05 1.84611999e-05 1.84611999e-05
      8.04508716e-07 8.04508716e-07 8.04508716e-07 2.94269313e-07
      2.94269313e-07 2.94269313e-07 2.54311487e-07 2.54311487e-07
      2.54311487e-07 3.69022501e-07 3.69022501e-07 3.69022501e-07
      -9.76877885e-08 -9.76877885e-08 -9.76877885e-08 1.44971273e-05
      1.44971273e-05 1.44971273e-05 8.17576292e-05 8.17576292e-05
      8.17576292e-05 1.04748637e-04 1.04748637e-04 1.04748637e-04
      -5.84692680e-06 -5.84692680e-06 -5.84692680e-06 8.30381832e-05
      8.30381832e-05 8.30381832e-05 1.03993465e-04 1.03993465e-04
      1.03993465e-04 -8.40046414e-05 -8.40046414e-05 -8.40046414e-05
      -2.10718499e-04 -2.10718499e-04 -2.10718499e-04 -1.35640308e-04
      -1.35640308e-04 -1.35640308e-04 3.26252193e-05 3.26252193e-05
      3.26252193e-05 8.63527457e-05 8.63527457e-05 8.63527457e-05
      6.10166426e-05 6.10166426e-05 6.10166426e-05 8.56181941e-05
      8.56181941e-05 8.56181941e-05 7.33945999e-05 7.33945999e-05
      7.33945999e-05 2.34203708e-05 2.34203708e-05 2.34203708e-05
      2.92538715e-07 2.92538715e-07 2.92538715e-07 6.55781491e-07
      6.55781491e-07 6.55781491e-07 4.13625202e-07 4.13625202e-07
      4.13625202e-07 1.48966890e-07 1.48966890e-07 1.48966890e-07
      9.41270912e-07 9.41270912e-07 9.41270912e-07 2.99539715e-05
      2.99539715e-05 2.99539715e-05 9.29428061e-05 9.29428061e-05
      9.29428061e-05 1.05399180e-04 1.05399180e-04 1.05399180e-04
      9.37810546e-06 9.37810546e-06 9.37810546e-06 7.35721478e-05
      7.35721478e-05 7.35721478e-05 4.14768147e-05 4.14768147e-05
      4.14768147e-05 -1.07653788e-04 -1.07653788e-04 -1.07653788e-04
      -1.43467405e-04 -1.43467405e-04 -1.43467405e-04 -1.00619160e-04
      -1.00619160e-04 -1.00619160e-04 4.58281684e-05 4.58281684e-05
      4.58281684e-05 5.93993682e-05 5.93993682e-05 5.93993682e-05
      6.18510749e-05 6.18510749e-05 6.18510749e-05 6.22254447e-05
      6.22254447e-05 6.22254447e-05 7.49510364e-05 7.49510364e-05
      7.49510364e-05 2.05057459e-05 2.05057459e-05 2.05057459e-05
      -7.42931093e-07 -7.42931093e-07 -7.42931093e-07 6.40897440e-07
      6.40897440e-07 6.40897440e-07 6.05760079e-07 6.05760079e-07
      6.05760079e-07 9.49198586e-09 9.49198586e-09 9.49198586e-09
      2.27668602e-06 2.27668602e-06 2.27668602e-06 3.77333090e-05
      3.77333090e-05 3.77333090e-05 8.91848758e-05 8.91848758e-05
      8.91848758e-05 1.04322753e-04 1.04322753e-04 1.04322753e-04
      4.91857681e-05 4.91857681e-05 4.91857681e-05 3.88251719e-05
      3.88251719e-05 3.88251719e-05 1.13472224e-05 1.13472224e-05
      1.13472224e-05 -8.60520959e-05 -8.60520959e-05 -8.60520959e-05
      -9.42333572e-05 -9.42333572e-05 -9.42333572e-05 -2.99800340e-05
      -2.99800340e-05 -2.99800340e-05 5.44178038e-05 5.44178038e-05
      5.44178038e-05 2.79660653e-05 2.79660653e-05 2.79660653e-05
      3.68022884e-05 3.68022884e-05 3.68022884e-05 7.37703740e-05
      7.37703740e-05 7.37703740e-05 7.38418894e-05 7.38418894e-05
      7.38418894e-05 1.14927188e-05 1.14927188e-05 1.14927188e-05
      1.00514831e-06 1.00514831e-06 1.00514831e-06 1.69506819e-07
      1.69506819e-07 1.69506819e-07 2.84880542e-07 2.84880542e-07
      2.84880542e-07 -1.67547830e-06 -1.67547830e-06 -1.67547830e-06
      3.38047357e-06 3.38047357e-06 3.38047357e-06 4.36862501e-05
      4.36862501e-05 4.36862501e-05 7.56266309e-05 7.56266309e-05
      7.56266309e-05 1.00200275e-04 1.00200275e-04 1.00200275e-04
      4.00846438e-05 4.00846438e-05 4.00846438e-05 1.42696754e-05
      1.42696754e-05 1.42696754e-05 2.07730573e-05 2.07730573e-05
      2.07730573e-05 -6.98463264e-05 -6.98463264e-05 -6.98463264e-05
      -9.11680181e-05 -9.11680181e-05 -9.11680181e-05 1.62749366e-05
      1.62749366e-05 1.62749366e-05 5.96153077e-05 5.96153077e-05
      5.96153077e-05 3.19018436e-05 3.19018436e-05 3.19018436e-05
      1.11951140e-05 1.11951140e-05 1.11951140e-05 5.77360915e-05
      5.77360915e-05 5.77360915e-05 8.35176252e-06 8.35176252e-06
      8.35176252e-06 -6.16272155e-06 -6.16272155e-06 -6.16272155e-06
      1.46943187e-08 1.46943187e-08 1.46943187e-08 1.20702524e-07
      1.20702524e-07 1.20702524e-07 -4.38399184e-07 -4.38399184e-07
      -4.38399184e-07 3.12521661e-06 3.12521661e-06 3.12521661e-06
      4.66403435e-06 4.66403435e-06 4.66403435e-06 3.52546922e-05
      3.52546922e-05 3.52546922e-05 5.25747091e-05 5.25747091e-05
      5.25747091e-05 9.36618089e-05 9.36618089e-05 9.36618089e-05
      3.94546332e-05 3.94546332e-05 3.94546332e-05 -4.24081827e-06
      -4.24081827e-06 -4.24081827e-06 -9.71126610e-06 -9.71126610e-06
      -9.71126610e-06 -9.65742438e-05 -9.65742438e-05 -9.65742438e-05
      -7.18448209e-05 -7.18448209e-05 -7.18448209e-05 6.74866460e-05
      6.74866460e-05 6.74866460e-05 9.14520206e-05 9.14520206e-05
      9.14520206e-05 -8.86078908e-07 -8.86078908e-07 -8.86078908e-07
      -1.21927633e-05 -1.21927633e-05 -1.21927633e-05 -4.44764082e-05
      -4.44764082e-05 -4.44764082e-05 -7.28619125e-05 -7.28619125e-05
      -7.28619125e-05 -6.32772062e-05 -6.32772062e-05 -6.32772062e-05
      -7.76719935e-06 -7.76719935e-06 -7.76719935e-06 2.72448716e-07
      2.72448716e-07 2.72448716e-07 -3.90771589e-07 -3.90771589e-07
      -3.90771589e-07 1.34108319e-07 1.34108319e-07 1.34108319e-07
      2.79902042e-06 2.79902042e-06 2.79902042e-06 3.19197134e-05
      3.19197134e-05 3.19197134e-05 2.68460171e-05 2.68460171e-05
      2.68460171e-05 4.21641598e-05 4.21641598e-05 4.21641598e-05
      2.58045366e-05 2.58045366e-05 2.58045366e-05 3.10039723e-05
      3.10039723e-05 3.10039723e-05 4.82939213e-05 4.82939213e-05
      4.82939213e-05 3.75134982e-06 3.75134982e-06 3.75134982e-06
      7.70588013e-05 7.70588013e-05 7.70588013e-05 1.11331305e-04
      1.11331305e-04 1.11331305e-04 3.10188807e-05 3.10188807e-05
      3.10188807e-05 -1.14856102e-05 -1.14856102e-05 -1.14856102e-05
      -2.70376859e-05 -2.70376859e-05 -2.70376859e-05 -6.46986882e-05
      -6.46986882e-05 -6.46986882e-05 -7.01223616e-05 -7.01223616e-05
      -7.01223616e-05 -7.58930255e-05 -7.58930255e-05 -7.58930255e-05
      -3.86803840e-05 -3.86803840e-05 -3.86803840e-05 3.58235130e-09
      3.58235130e-09 3.58235130e-09 -4.12296544e-07 -4.12296544e-07
      -4.12296544e-07 2.44346467e-07 2.44346467e-07 2.44346467e-07
      2.56355861e-07 2.56355861e-07 2.56355861e-07 1.24397038e-05
      1.24397038e-05 1.24397038e-05 1.20025616e-05 1.20025616e-05
      1.20025616e-05 -1.11972431e-05 -1.11972431e-05 -1.11972431e-05
      -1.47070568e-05 -1.47070568e-05 -1.47070568e-05 2.70074506e-05
      2.70074506e-05 2.70074506e-05 7.29137682e-05 7.29137682e-05
      7.29137682e-05 7.31686087e-05 7.31686087e-05 7.31686087e-05
      9.86917075e-05 9.86917075e-05 9.86917075e-05 6.96904244e-05
      6.96904244e-05 6.96904244e-05 1.33980047e-05 1.33980047e-05
      1.33980047e-05 2.33408464e-05 2.33408464e-05 2.33408464e-05
      -5.39668190e-06 -5.39668190e-06 -5.39668190e-06 -1.54270638e-05
      -1.54270638e-05 -1.54270638e-05 -1.58625735e-05 -1.58625735e-05
      -1.58625735e-05 -1.64970770e-05 -1.64970770e-05 -1.64970770e-05
      -9.51754373e-06 -9.51754373e-06 -9.51754373e-06 -9.51754430e-07
      -9.51754430e-07 -9.51754430e-07 1.90315788e-07 1.90315788e-07
      1.90315788e-07 4.33233367e-07 4.33233367e-07 4.33233367e-07
      1.37467680e-07 1.37467680e-07 1.37467680e-07 2.58132360e-07
      2.58132360e-07 2.58132360e-07 -8.17374186e-08 -8.17374186e-08
      -8.17374186e-08 -2.19424578e-06 -2.19424578e-06 -2.19424578e-06
      -6.15103954e-06 -6.15103954e-06 -6.15103954e-06 -1.63771529e-06
      -1.63771529e-06 -1.63771529e-06 -2.51828660e-05 -2.51828660e-05
      -2.51828660e-05 -2.80818404e-05 -2.80818404e-05 -2.80818404e-05
      -2.67401265e-06 -2.67401265e-06 -2.67401265e-06 2.04228490e-05
      2.04228490e-05 2.04228490e-05 1.63629647e-05 1.63629647e-05
      1.63629647e-05 9.46340879e-06 9.46340879e-06 9.46340879e-06
      -2.73679632e-07 -2.73679632e-07 -2.73679632e-07 -7.94470111e-07
      -7.94470111e-07 -7.94470111e-07 0. 0. 0. -6.34502953e-07
      -6.34502953e-07 -6.34502953e-07 0. 0. 0. 0. 0. 0. 4.78137224e-07
      4.78137224e-07 4.78137224e-07 -3.83705618e-08 -3.83705618e-08
      -3.83705618e-08 3.64177566e-07 3.64177566e-07 3.64177566e-07
      3.80709935e-08 3.80709935e-08 3.80709935e-08 6.06595620e-07
      6.06595620e-07 6.06595620e-07 1.52485640e-07 1.52485640e-07
      1.52485640e-07 6.65287274e-08 6.65287274e-08 6.65287274e-08
      4.59585806e-07 4.59585806e-07 4.59585806e-07 -4.63918298e-07
      -4.63918298e-07 -4.63918298e-07 -5.09306631e-07 -5.09306631e-07
      -5.09306631e-07 2.54398765e-06 2.54398765e-06 2.54398765e-06
      -2.34893534e-07 -2.34893534e-07 -2.34893534e-07 3.01720235e-07
      3.01720235e-07 3.01720235e-07 1.89049430e-07 1.89049430e-07
      1.89049430e-07 -6.83854608e-08 -6.83854608e-08 -6.83854608e-08
      3.50186724e-07 3.50186724e-07 3.50186724e-07 -6.34502953e-07
      -6.34502953e-07 -6.34502953e-07 -6.34502953e-07 -6.34502953e-07
      -6.34502953e-07 0. 0. 0. -3.17251477e-07 -3.17251477e-07
      -3.17251477e-07 8.92586570e-07 8.92586570e-07 8.92586570e-07
      -1.22195104e-07 -1.22195104e-07 -1.22195104e-07 1.54461802e-07
      1.54461802e-07 1.54461802e-07 8.63489475e-08 8.63489475e-08
      8.63489475e-08 8.25254119e-07 8.25254119e-07 8.25254119e-07
      4.35039624e-07 4.35039624e-07 4.35039624e-07 1.34358302e-08
      1.34358302e-08 1.34358302e-08 2.71106273e-07 2.71106273e-07
      2.71106273e-07 -2.09557186e-07 -2.09557186e-07 -2.09557186e-07
      2.05105630e-06 2.05105630e-06 2.05105630e-06 -8.19540787e-07
      -8.19540787e-07 -8.19540787e-07 3.05530705e-07 3.05530705e-07
      3.05530705e-07 1.03492731e-07 1.03492731e-07 1.03492731e-07
      7.28095017e-07 7.28095017e-07 7.28095017e-07 -2.65955240e-08
      -2.65955240e-08 -2.65955240e-08 -3.41613998e-07 -3.41613998e-07
      -3.41613998e-07 0. 0. 0. 0. 0. 0. 0. 0. 0. 0. 0. 0.</_></support_vectors>
  <uncompressed_sv_total>22</uncompressed_sv_total>
  <uncompressed_support_vectors>
    <_>
      0. 0. 0. 0. 0. 0. 0. 0. 0. 0. 0. 0. 0. 0. 0. 0. 0. 0. 0. 0. 0. 0.
      0. 0. 2. 2. 2. 0. 0. 0. 0. 0. 0. 1. 1. 1. 0. 0. 0. 0. 0. 0. 1. 1.
      1. 1. 1. 1. 0. 0. 0. 0. 0. 0. 0. 0. 0. 0. 0. 0. 0. 0. 0. 0. 0. 0.
      0. 0. 0. 0. 0. 0. 0. 0. 0. 0. 0. 0. 0. 0. 0. 0. 0. 0. 0. 0. 0. 0.
      0. 0. 2. 2. 2. 0. 0. 0. 3. 3. 3. 1. 1. 1. 0. 0. 0. 0. 0. 0. 0. 0.
      0. 0. 0. 0. 0. 0. 0. 0. 0. 0. 0. 0. 0. 0. 0. 0. 0. 0. 0. 0. 0. 0.
      0. 0. 0. 0. 0. 0. 0. 0. 0. 0. 0. 0. 0. 0. 0. 17. 17. 17. 27. 27.
      27. 3. 3. 3. 0. 0. 0. 0. 0. 0. 0. 0. 0. 2. 2. 2. 0. 0. 0. 0. 0. 0.
      0. 0. 0. 0. 0. 0. 0. 0. 0. 0. 0. 0. 0. 0. 0. 0. 0. 0. 0. 0. 0. 0.
      0. 0. 0. 0. 0. 0. 0. 0. 0. 0. 0. 111. 111. 111. 217. 217. 217. 25.
      25. 25. 0. 0. 0. 3. 3. 3. 1. 1. 1. 0. 0. 0. 0. 0. 0. 0. 0. 0. 0.
      0. 0. 0. 0. 0. 0. 0. 0. 0. 0. 0. 0. 0. 0. 0. 0. 0. 0. 0. 0. 0. 0.
      0. 0. 0. 0. 0. 0. 0. 1. 1. 1. 163. 163. 163. 209. 209. 209. 14.
      14. 14. 2. 2. 2. 1. 1. 1. 0. 0. 0. 2. 2. 2. 0. 0. 0. 0. 0. 0. 0.
      0. 0. 0. 0. 0. 0. 0. 0. 0. 0. 0. 0. 0. 0. 0. 0. 0. 0. 0. 0. 0. 0.
      0. 0. 0. 0. 0. 0. 0. 0. 0. 0. 195. 195. 195. 205. 205. 205. 9. 9.
      9. 1. 1. 1. 2. 2. 2. 2. 2. 2. 0. 0. 0. 0. 0. 0. 0. 0. 0. 0. 0. 0.
      0. 0. 0. 0. 0. 0. 0. 0. 0. 0. 0. 0. 0. 0. 0. 0. 0. 0. 0. 0. 0. 0.
      0. 0. 0. 0. 0. 1. 1. 1. 189. 189. 189. 208. 208. 208. 11. 11. 11.
      0. 0. 0. 0. 0. 0. 1. 1. 1. 2. 2. 2. 0. 0. 0. 0. 0. 0. 0. 0. 0. 0.
      0. 0. 0. 0. 0. 0. 0. 0. 0. 0. 0. 0. 0. 0. 0. 0. 0. 0. 0. 0. 0. 0.
      0. 0. 0. 0. 1. 1. 1. 194. 194. 194. 205. 205. 205. 8. 8. 8. 0. 0.
      0. 1. 1. 1. 1. 1. 1. 0. 0. 0. 0. 0. 0. 0. 0. 0. 0. 0. 0. 0. 0. 0.
      0. 0. 0. 0. 0. 0. 0. 0. 0. 0. 0. 0. 0. 0. 0. 0. 0. 0. 0. 0. 0. 0.
      0. 0. 2. 2. 2. 161. 161. 161. 217. 217. 217. 29. 29. 29. 1. 1. 1.
      2. 2. 2. 0. 0. 0. 0. 0. 0. 0. 0. 0. 0. 0. 0. 0. 0. 0. 0. 0. 0. 0.
      0. 0. 0. 0. 0. 0. 0. 0. 0. 0. 0. 0. 0. 0. 0. 0. 0. 0. 0. 0. 0. 0.
      0. 0. 0. 0. 120. 120. 120. 233. 233. 233. 54. 54. 54. 1. 1. 1. 0.
      0. 0. 0. 0. 0. 0. 0. 0. 0. 0. 0. 0. 0. 0. 0. 0. 0. 0. 0. 0. 0. 0.
      0. 0. 0. 0. 0. 0. 0. 0. 0. 0. 0. 0. 0. 0. 0. 0. 0. 0. 0. 0. 0. 0.
      3. 3. 3. 121. 121. 121. 227. 227. 227. 56. 56. 56. 0. 0. 0. 2. 2.
      2. 3. 3. 3. 0. 0. 0. 0. 0. 0. 0. 0. 0. 0. 0. 0. 0. 0. 0. 0. 0. 0.
      0. 0. 0. 0. 0. 0. 0. 0. 0. 0. 0. 0. 0. 0. 0. 0. 0. 0. 0. 0. 0. 0.
      0. 0. 127. 127. 127. 231. 231. 231. 49. 49. 49. 0. 0. 0. 0. 0. 0.
      0. 0. 0. 2. 2. 2. 0. 0. 0. 0. 0. 0. 0. 0. 0. 0. 0. 0. 0. 0. 0. 0.
      0. 0. 0. 0. 0. 0. 0. 0. 0. 0. 0. 0. 0. 0. 0. 0. 0. 0. 0. 0. 0. 0.
      0. 118. 118. 118. 231. 231. 231. 60. 60. 60. 1. 1. 1. 1. 1. 1. 3.
      3. 3. 0. 0. 0. 0. 0. 0. 0. 0. 0. 0. 0. 0. 0. 0. 0. 0. 0. 0. 0. 0.
      0. 0. 0. 0. 0. 0. 0. 0. 0. 0. 0. 0. 0. 0. 0. 0. 0. 0. 0. 2. 2. 2.
      64. 64. 64. 254. 254. 254. 94. 94. 94. 0. 0. 0. 0. 0. 0. 0. 0. 0.
      1. 1. 1. 0. 0. 0. 0. 0. 0. 0. 0. 0. 0. 0. 0. 0. 0. 0. 0. 0. 0. 0.
      0. 0. 0. 0. 0. 0. 0. 0. 0. 0. 0. 0. 0. 0. 0. 0. 0. 0. 0. 0. 47.
      47. 47. 249. 249. 249. 94. 94. 94. 2. 2. 2. 1. 1. 1. 1. 1. 1. 1.
      1. 1. 0. 0. 0. 0. 0. 0. 0. 0. 0. 0. 0. 0. 0. 0. 0. 0. 0. 0. 0. 0.
      0. 0. 0. 0. 0. 0. 0. 0. 0. 0. 0. 0. 0. 0. 0. 0. 1. 1. 1. 8. 8. 8.
      233. 233. 233. 175. 175. 175. 5. 5. 5. 1. 1. 1. 0. 0. 0. 0. 0. 0.
      0. 0. 0. 0. 0. 0. 0. 0. 0. 0. 0. 0. 0. 0. 0. 0. 0. 0. 0. 0. 0. 0.
      0. 0. 0. 0. 0. 0. 0. 0. 0. 0. 0. 0. 0. 0. 0. 0. 0. 1. 1. 1. 146.
      146. 146. 238. 238. 238. 28. 28. 28. 0. 0. 0. 1. 1. 1. 0. 0. 0. 0.
      0. 0. 0. 0. 0. 0. 0. 0. 0. 0. 0. 0. 0. 0. 0. 0. 0. 0. 0. 0. 0. 0.
      0. 0. 0. 0. 0. 0. 0. 0. 0. 0. 0. 0. 0. 1. 1. 1. 0. 0. 0. 8. 8. 8.
      29. 29. 29. 1. 1. 1. 3. 3. 3. 0. 0. 0. 5. 5. 5. 0. 0. 0. 0. 0. 0.
      0. 0. 0. 0. 0. 0. 0. 0. 0. 0. 0. 0. 0. 0. 0. 0. 0. 0. 0. 0. 0. 0.
      0. 0. 0. 0. 0. 0. 0. 0. 0. 0. 0. 4. 4. 4. 0. 0. 0. 0. 0. 0. 2. 2.
      2. 0. 0. 0. 1. 1. 1. 0. 0. 0. 0. 0. 0. 0. 0. 0. 0. 0. 0. 0. 0. 0.
      0. 0. 0. 0. 0. 0. 0. 0. 0. 0. 0. 0. 0. 0. 0. 0. 0. 0. 0. 0. 0. 0.
      0. 0. 1. 1. 1. 0. 0. 0. 0. 0. 0. 0. 0. 0. 4. 4. 4. 0. 0. 0. 0. 0.
      0. 3. 3. 3. 0. 0. 0. 0. 0. 0. 0. 0. 0. 0. 0. 0.</_>
    <_>
      0. 0. 0. 0. 0. 0. 0. 0. 0. 0. 0. 0. 0. 0. 0. 0. 0. 0. 0. 0. 0. 0.
      0. 0. 0. 0. 0. 1. 1. 1. 0. 0. 0. 0. 0. 0. 0. 0. 0. 0. 0. 0. 0. 0.
      0. 0. 0. 0. 0. 0. 0. 0. 0. 0. 0. 0. 0. 0. 0. 0. 0. 0. 0. 0. 0. 0.
      0. 0. 0. 0. 0. 0. 0. 0. 0. 0. 0. 0. 0. 0. 0. 0. 0. 0. 2. 2. 2. 0.
      0. 0. 2. 2. 2. 0. 0. 0. 0. 0. 0. 3. 3. 3. 0. 0. 0. 2. 2. 2. 0. 0.
      0. 0. 0. 0. 0. 0. 0. 0. 0. 0. 0. 0. 0. 0. 0. 0. 0. 0. 0. 0. 0. 0.
      0. 0. 0. 0. 0. 0. 0. 0. 0. 0. 0. 0. 0. 0. 0. 0. 0. 0. 0. 0. 0. 1.
      1. 1. 25. 25. 25. 24. 24. 24. 0. 0. 0. 0. 0. 0. 0. 0. 0. 0. 0. 0.
      0. 0. 0. 0. 0. 0. 0. 0. 0. 0. 0. 0. 0. 0. 0. 0. 0. 0. 0. 0. 0. 0.
      0. 0. 0. 0. 0. 0. 0. 0. 1. 1. 1. 1. 1. 1. 0. 0. 0. 10. 10. 10.
      208. 208. 208. 197. 197. 197. 18. 18. 18. 2. 2. 2. 0. 0. 0. 0. 0.
      0. 0. 0. 0. 0. 0. 0. 0. 0. 0. 0. 0. 0. 0. 0. 0. 0. 0. 0. 0. 0. 0.
      0. 0. 0. 0. 0. 0. 0. 0. 0. 0. 0. 0. 1. 1. 1. 1. 1. 1. 59. 59. 59.
      237. 237. 237. 254. 254. 254. 84. 84. 84. 0. 0. 0. 0. 0. 0. 0. 0.
      0. 0. 0. 0. 0. 0. 0. 0. 0. 0. 0. 0. 0. 0. 0. 0. 0. 0. 0. 0. 0. 0.
      0. 0. 0. 0. 0. 0. 0. 0. 0. 0. 0. 0. 0. 0. 0. 0. 0. 0. 32. 32. 32.
      229. 229. 229. 255. 255. 255. 89. 89. 89. 0. 0. 0. 0. 0. 0. 0. 0.
      0. 0. 0. 0. 0. 0. 0. 0. 0. 0. 0. 0. 0. 0. 0. 0. 0. 0. 0. 0. 0. 0.
      0. 0. 0. 0. 0. 0. 0. 0. 0. 0. 0. 0. 3. 3. 3. 0. 0. 0. 72. 72. 72.
      245. 245. 245. 216. 216. 216. 33. 33. 33. 4. 4. 4. 0. 0. 0. 0. 0.
      0. 0. 0. 0. 0. 0. 0. 0. 0. 0. 0. 0. 0. 0. 0. 0. 0. 0. 0. 0. 0. 0.
      0. 0. 0. 0. 0. 0. 0. 0. 0. 0. 0. 0. 0. 0. 0. 22. 22. 22. 196. 196.
      196. 255. 255. 255. 115. 115. 115. 2. 2. 2. 0. 0. 0. 0. 0. 0. 0.
      0. 0. 0. 0. 0. 0. 0. 0. 0. 0. 0. 1. 1. 1. 0. 0. 0. 0. 0. 0. 0. 0.
      0. 2. 2. 2. 0. 0. 0. 2. 2. 2. 1. 1. 1. 1. 1. 1. 141. 141. 141.
      255. 255. 255. 206. 206. 206. 9. 9. 9. 5. 5. 5. 1. 1. 1. 0. 0. 0.
      0. 0. 0. 0. 0. 0. 0. 0. 0. 4. 4. 4. 0. 0. 0. 0. 0. 0. 1. 1. 1. 1.
      1. 1. 0. 0. 0. 0. 0. 0. 0. 0. 0. 0. 0. 0. 82. 82. 82. 250. 250.
      250. 247. 247. 247. 71. 71. 71. 2. 2. 2. 0. 0. 0. 0. 0. 0. 0. 0.
      0. 0. 0. 0. 0. 0. 0. 0. 0. 0. 0. 0. 0. 0. 0. 0. 3. 3. 3. 0. 0. 0.
      0. 0. 0. 0. 0. 0. 3. 3. 3. 0. 0. 0. 52. 52. 52. 226. 226. 226.
      255. 255. 255. 98. 98. 98. 0. 0. 0. 1. 1. 1. 1. 1. 1. 2. 2. 2. 0.
      0. 0. 0. 0. 0. 0. 0. 0. 0. 0. 0. 2. 2. 2. 3. 3. 3. 0. 0. 0. 3. 3.
      3. 0. 0. 0. 1. 1. 1. 0. 0. 0. 12. 12. 12. 185. 185. 185. 255. 255.
      255. 123. 123. 123. 8. 8. 8. 1. 1. 1. 0. 0. 0. 1. 1. 1. 0. 0. 0.
      0. 0. 0. 0. 0. 0. 0. 0. 0. 0. 0. 0. 1. 1. 1. 0. 0. 0. 0. 0. 0. 0.
      0. 0. 0. 0. 0. 0. 0. 0. 8. 8. 8. 153. 153. 153. 255. 255. 255.
      184. 184. 184. 5. 5. 5. 0. 0. 0. 0. 0. 0. 3. 3. 3. 0. 0. 0. 0. 0.
      0. 0. 0. 0. 0. 0. 0. 0. 0. 0. 0. 0. 0. 0. 0. 0. 6. 6. 6. 0. 0. 0.
      0. 0. 0. 0. 0. 0. 2. 2. 2. 129. 129. 129. 255. 255. 255. 252. 252.
      252. 166. 166. 166. 1. 1. 1. 0. 0. 0. 2. 2. 2. 3. 3. 3. 0. 0. 0.
      2. 2. 2. 0. 0. 0. 0. 0. 0. 0. 0. 0. 0. 0. 0. 0. 0. 0. 2. 2. 2. 0.
      0. 0. 2. 2. 2. 0. 0. 0. 18. 18. 18. 197. 197. 197. 253. 253. 253.
      255. 255. 255. 135. 135. 135. 1. 1. 1. 0. 0. 0. 0. 0. 0. 0. 0. 0.
      2. 2. 2. 0. 0. 0. 0. 0. 0. 0. 0. 0. 0. 0. 0. 0. 0. 0. 2. 2. 2. 0.
      0. 0. 1. 1. 1. 0. 0. 0. 0. 0. 0. 103. 103. 103. 255. 255. 255.
      232. 232. 232. 151. 151. 151. 37. 37. 37. 1. 1. 1. 2. 2. 2. 0. 0.
      0. 0. 0. 0. 0. 0. 0. 1. 1. 1. 0. 0. 0. 0. 0. 0. 0. 0. 0. 0. 0. 0.
      1. 1. 1. 0. 0. 0. 2. 2. 2. 0. 0. 0. 0. 0. 0. 155. 155. 155. 255.
      255. 255. 92. 92. 92. 0. 0. 0. 0. 0. 0. 0. 0. 0. 0. 0. 0. 0. 0. 0.
      0. 0. 0. 0. 0. 0. 0. 0. 0. 0. 0. 0. 0. 0. 0. 0. 0. 0. 0. 0. 0. 0.
      0. 0. 2. 2. 2. 0. 0. 0. 2. 2. 2. 1. 1. 1. 17. 17. 17. 35. 35. 35.
      1. 1. 1. 0. 0. 0. 0. 0. 0. 0. 0. 0. 0. 0. 0. 0. 0. 0. 0. 0. 0. 0.
      0. 0. 0. 0. 0. 0. 0. 0. 0. 0. 0. 0. 0. 0. 0. 0. 0. 1. 1. 1. 1. 1.
      1. 0. 0. 0. 0. 0. 0. 0. 0. 0. 0. 0. 0. 1. 1. 1. 0. 0. 0. 0. 0. 0.
      0. 0. 0. 0. 0. 0. 0. 0. 0. 0. 0. 0. 0. 0. 0. 0. 0. 0. 0. 0. 0. 0.
      0. 0. 0. 0. 0. 0. 0. 0. 0. 0. 0. 0. 0. 0. 0. 0. 0. 0. 0. 0. 1. 1.
      1. 1. 1. 1. 0. 0. 0. 2. 2. 2. 0. 0. 0. 0. 0. 0. 0. 0. 0. 0. 0. 0.
      0. 0. 0. 0. 0. 0. 0. 0. 0. 0. 0. 0. 0. 0. 0. 0. 0. 0. 0. 0. 0. 0.
      0. 0. 0. 0. 0.</_>
    <_>
      0. 0. 0. 0. 0. 0. 0. 0. 0. 0. 0. 0. 0. 0. 0. 0. 0. 0. 0. 0. 0. 0.
      0. 0. 2. 2. 2. 0. 0. 0. 0. 0. 0. 0. 0. 0. 2. 2. 2. 0. 0. 0. 0. 0.
      0. 2. 2. 2. 0. 0. 0. 0. 0. 0. 0. 0. 0. 0. 0. 0. 0. 0. 0. 0. 0. 0.
      0. 0. 0. 0. 0. 0. 0. 0. 0. 0. 0. 0. 0. 0. 0. 0. 0. 0. 0. 0. 0. 1.
      1. 1. 0. 0. 0. 1. 1. 1. 0. 0. 0. 0. 0. 0. 0. 0. 0. 0. 0. 0. 0. 0.
      0. 0. 0. 0. 0. 0. 0. 0. 0. 0. 0. 0. 0. 0. 0. 0. 0. 0. 0. 0. 0. 0.
      0. 0. 0. 0. 0. 0. 0. 0. 0. 0. 0. 0. 0. 0. 0. 1. 1. 1. 1. 1. 1. 0.
      0. 0. 0. 0. 0. 0. 0. 0. 1. 1. 1. 2. 2. 2. 0. 0. 0. 0. 0. 0. 0. 0.
      0. 0. 0. 0. 0. 0. 0. 0. 0. 0. 0. 0. 0. 0. 0. 0. 0. 0. 0. 0. 0. 0.
      0. 0. 0. 0. 0. 0. 0. 0. 0. 0. 0. 0. 21. 21. 21. 87. 87. 87. 12.
      12. 12. 1. 1. 1. 1. 1. 1. 0. 0. 0. 0. 0. 0. 0. 0. 0. 0. 0. 0. 0.
      0. 0. 0. 0. 0. 0. 0. 0. 0. 0. 0. 0. 0. 0. 0. 0. 0. 0. 0. 0. 0. 0.
      0. 0. 0. 0. 0. 0. 0. 0. 0. 0. 151. 151. 151. 194. 194. 194. 18.
      18. 18. 0. 0. 0. 1. 1. 1. 1. 1. 1. 0. 0. 0. 0. 0. 0. 0. 0. 0. 0.
      0. 0. 0. 0. 0. 0. 0. 0. 0. 0. 0. 0. 0. 0. 0. 0. 0. 0. 0. 0. 0. 0.
      0. 0. 0. 0. 2. 2. 2. 28. 28. 28. 246. 246. 246. 119. 119. 119. 0.
      0. 0. 3. 3. 3. 1. 1. 1. 0. 0. 0. 0. 0. 0. 0. 0. 0. 0. 0. 0. 0. 0.
      0. 0. 0. 0. 0. 0. 0. 0. 0. 0. 0. 0. 0. 0. 0. 0. 0. 0. 0. 0. 0. 0.
      0. 0. 0. 0. 0. 0. 54. 54. 54. 224. 224. 224. 55. 55. 55. 1. 1. 1.
      0. 0. 0. 1. 1. 1. 0. 0. 0. 0. 0. 0. 0. 0. 0. 0. 0. 0. 0. 0. 0. 0.
      0. 0. 0. 0. 0. 0. 0. 0. 0. 0. 0. 0. 0. 0. 0. 0. 0. 0. 0. 0. 0. 0.
      0. 0. 0. 0. 114. 114. 114. 188. 188. 188. 0. 0. 0. 0. 0. 0. 5. 5.
      5. 0. 0. 0. 0. 0. 0. 0. 0. 0. 0. 0. 0. 0. 0. 0. 0. 0. 0. 0. 0. 0.
      0. 0. 0. 0. 0. 0. 0. 0. 0. 0. 0. 0. 0. 0. 0. 0. 0. 0. 0. 0. 0. 0.
      0. 0. 174. 174. 174. 192. 192. 192. 0. 0. 0. 0. 0. 0. 4. 4. 4. 0.
      0. 0. 0. 0. 0. 0. 0. 0. 0. 0. 0. 0. 0. 0. 0. 0. 0. 0. 0. 0. 0. 0.
      0. 0. 0. 0. 0. 0. 0. 0. 0. 0. 0. 0. 0. 0. 0. 0. 0. 0. 0. 15. 15.
      15. 201. 201. 201. 161. 161. 161. 2. 2. 2. 0. 0. 0. 0. 0. 0. 0. 0.
      0. 3. 3. 3. 0. 0. 0. 0. 0. 0. 0. 0. 0. 0. 0. 0. 0. 0. 0. 0. 0. 0.
      0. 0. 0. 0. 0. 0. 0. 0. 0. 0. 0. 0. 0. 0. 0. 0. 0. 0. 24. 24. 24.
      216. 216. 216. 121. 121. 121. 1. 1. 1. 3. 3. 3. 0. 0. 0. 0. 0. 0.
      0. 0. 0. 0. 0. 0. 0. 0. 0. 0. 0. 0. 0. 0. 0. 0. 0. 0. 0. 0. 0. 0.
      0. 0. 0. 0. 0. 0. 0. 0. 0. 0. 0. 0. 0. 0. 0. 0. 0. 28. 28. 28.
      213. 213. 213. 119. 119. 119. 0. 0. 0. 1. 1. 1. 2. 2. 2. 0. 0. 0.
      0. 0. 0. 0. 0. 0. 0. 0. 0. 0. 0. 0. 0. 0. 0. 0. 0. 0. 0. 0. 0. 0.
      0. 0. 0. 0. 0. 0. 0. 0. 0. 0. 0. 0. 0. 0. 0. 0. 0. 9. 9. 9. 195.
      195. 195. 155. 155. 155. 0. 0. 0. 1. 1. 1. 0. 0. 0. 0. 0. 0. 0. 0.
      0. 0. 0. 0. 0. 0. 0. 0. 0. 0. 0. 0. 0. 0. 0. 0. 0. 0. 0. 0. 0. 0.
      0. 0. 0. 0. 0. 0. 0. 0. 0. 0. 0. 0. 0. 0. 0. 2. 2. 2. 189. 189.
      189. 167. 167. 167. 1. 1. 1. 1. 1. 1. 0. 0. 0. 2. 2. 2. 0. 0. 0.
      0. 0. 0. 0. 0. 0. 0. 0. 0. 0. 0. 0. 0. 0. 0. 0. 0. 0. 0. 0. 0. 0.
      0. 0. 0. 0. 0. 0. 0. 0. 0. 0. 0. 0. 0. 0. 25. 25. 25. 205. 205.
      205. 117. 117. 117. 0. 0. 0. 0. 0. 0. 0. 0. 0. 3. 3. 3. 1. 1. 1.
      0. 0. 0. 0. 0. 0. 0. 0. 0. 0. 0. 0. 0. 0. 0. 0. 0. 0. 0. 0. 0. 0.
      0. 0. 0. 0. 0. 0. 0. 0. 0. 0. 0. 0. 0. 0. 27. 27. 27. 206. 206.
      206. 52. 52. 52. 1. 1. 1. 0. 0. 0. 3. 3. 3. 0. 0. 0. 0. 0. 0. 0.
      0. 0. 0. 0. 0. 0. 0. 0. 0. 0. 0. 0. 0. 0. 0. 0. 0. 0. 0. 0. 0. 0.
      0. 0. 0. 0. 0. 0. 0. 0. 0. 0. 0. 0. 0. 24. 24. 24. 207. 207. 207.
      85. 85. 85. 0. 0. 0. 0. 0. 0. 2. 2. 2. 0. 0. 0. 0. 0. 0. 0. 0. 0.
      0. 0. 0. 0. 0. 0. 0. 0. 0. 0. 0. 0. 0. 0. 0. 0. 0. 0. 0. 0. 0. 0.
      0. 0. 0. 0. 0. 0. 0. 0. 0. 0. 0. 0. 0. 0. 150. 150. 150. 97. 97.
      97. 0. 0. 0. 0. 0. 0. 0. 0. 0. 0. 0. 0. 2. 2. 2. 0. 0. 0. 0. 0. 0.
      0. 0. 0. 0. 0. 0. 0. 0. 0. 0. 0. 0. 0. 0. 0. 0. 0. 0. 0. 0. 0. 0.
      0. 0. 0. 0. 0. 0. 0. 0. 0. 0. 0. 3. 3. 3. 3. 3. 3. 0. 0. 0. 0. 0.
      0. 0. 0. 0. 2. 2. 2. 0. 0. 0. 0. 0. 0. 0. 0. 0. 0. 0. 0. 0. 0. 0.
      0. 0. 0. 0. 0. 0. 0. 0. 0. 0. 0. 0. 0. 0. 0. 0. 0. 0. 0. 0. 0. 0.
      0. 0. 1. 1. 1. 0. 0. 0. 0. 0. 0. 1. 1. 1. 0. 0. 0. 3. 3. 3. 0. 0.
      0. 2. 2. 2. 0. 0. 0. 0. 0. 0. 0. 0. 0. 0. 0. 0.</_>
    <_>
      0. 0. 0. 1. 1. 1. 2. 2. 2. 0. 0. 0. 0. 0. 0. 0. 0. 0. 2. 2. 2. 0.
      0. 0. 0. 0. 0. 1. 1. 1. 0. 0. 0. 3. 3. 3. 0. 0. 0. 1. 1. 1. 3. 3.
      3. 0. 0. 0. 0. 0. 0. 0. 0. 0. 0. 0. 0. 0. 0. 0. 3. 3. 3. 0. 0. 0.
      0. 0. 0. 1. 1. 1. 0. 0. 0. 2. 2. 2. 0. 0. 0. 0. 0. 0. 0. 0. 0. 0.
      0. 0. 2. 2. 2. 0. 0. 0. 4. 4. 4. 0. 0. 0. 0. 0. 0. 4. 4. 4. 0. 0.
      0. 0. 0. 0. 0. 0. 0. 0. 0. 0. 0. 0. 0. 0. 0. 0. 0. 0. 0. 1. 1. 1.
      0. 0. 0. 2. 2. 2. 1. 1. 1. 2. 2. 2. 0. 0. 0. 4. 4. 4. 0. 0. 0. 0.
      0. 0. 0. 0. 0. 0. 0. 0. 5. 5. 5. 0. 0. 0. 0. 0. 0. 0. 0. 0. 0. 0.
      0. 0. 0. 0. 0. 0. 0. 1. 1. 1. 0. 0. 0. 0. 0. 0. 2. 2. 2. 0. 0. 0.
      0. 0. 0. 0. 0. 0. 0. 0. 0. 46. 46. 46. 61. 61. 61. 0. 0. 0. 4. 4.
      4. 0. 0. 0. 0. 0. 0. 0. 0. 0. 0. 0. 0. 0. 0. 0. 0. 0. 0. 0. 0. 0.
      1. 1. 1. 0. 0. 0. 0. 0. 0. 1. 1. 1. 0. 0. 0. 0. 0. 0. 3. 3. 3. 2.
      2. 2. 32. 32. 32. 205. 205. 205. 218. 218. 218. 39. 39. 39. 0. 0.
      0. 1. 1. 1. 0. 0. 0. 0. 0. 0. 0. 0. 0. 0. 0. 0. 0. 0. 0. 0. 0. 0.
      0. 0. 0. 0. 0. 0. 2. 2. 2. 0. 0. 0. 0. 0. 0. 0. 0. 0. 0. 0. 0. 0.
      0. 0. 123. 123. 123. 250. 250. 250. 255. 255. 255. 91. 91. 91. 0.
      0. 0. 0. 0. 0. 1. 1. 1. 1. 1. 1. 0. 0. 0. 0. 0. 0. 0. 0. 0. 0. 0.
      0. 2. 2. 2. 0. 0. 0. 1. 1. 1. 0. 0. 0. 2. 2. 2. 2. 2. 2. 0. 0. 0.
      62. 62. 62. 240. 240. 240. 179. 179. 179. 247. 247. 247. 113. 113.
      113. 2. 2. 2. 1. 1. 1. 1. 1. 1. 0. 0. 0. 0. 0. 0. 0. 0. 0. 0. 0.
      0. 0. 0. 0. 0. 0. 0. 1. 1. 1. 1. 1. 1. 0. 0. 0. 0. 0. 0. 0. 0. 0.
      36. 36. 36. 219. 219. 219. 163. 163. 163. 83. 83. 83. 255. 255.
      255. 154. 154. 154. 4. 4. 4. 0. 0. 0. 0. 0. 0. 2. 2. 2. 0. 0. 0.
      0. 0. 0. 0. 0. 0. 0. 0. 0. 2. 2. 2. 0. 0. 0. 2. 2. 2. 0. 0. 0. 0.
      0. 0. 28. 28. 28. 174. 174. 174. 177. 177. 177. 3. 3. 3. 44. 44.
      44. 246. 246. 246. 159. 159. 159. 5. 5. 5. 0. 0. 0. 0. 0. 0. 0. 0.
      0. 0. 0. 0. 0. 0. 0. 0. 0. 0. 0. 0. 0. 0. 0. 0. 5. 5. 5. 0. 0. 0.
      0. 0. 0. 0. 0. 0. 29. 29. 29. 114. 114. 114. 27. 27. 27. 3. 3. 3.
      4. 4. 4. 233. 233. 233. 161. 161. 161. 3. 3. 3. 2. 2. 2. 0. 0. 0.
      0. 0. 0. 0. 0. 0. 0. 0. 0. 0. 0. 0. 0. 0. 0. 0. 0. 0. 0. 0. 0. 3.
      3. 3. 0. 0. 0. 1. 1. 1. 0. 0. 0. 0. 0. 0. 2. 2. 2. 0. 0. 0. 11.
      11. 11. 234. 234. 234. 156. 156. 156. 3. 3. 3. 0. 0. 0. 3. 3. 3.
      1. 1. 1. 0. 0. 0. 0. 0. 0. 0. 0. 0. 0. 0. 0. 3. 3. 3. 2. 2. 2. 0.
      0. 0. 1. 1. 1. 0. 0. 0. 0. 0. 0. 3. 3. 3. 0. 0. 0. 4. 4. 4. 4. 4.
      4. 233. 233. 233. 159. 159. 159. 5. 5. 5. 0. 0. 0. 0. 0. 0. 0. 0.
      0. 0. 0. 0. 0. 0. 0. 0. 0. 0. 0. 0. 0. 0. 0. 0. 0. 0. 0. 0. 0. 0.
      1. 1. 1. 0. 0. 0. 0. 0. 0. 0. 0. 0. 0. 0. 0. 0. 0. 0. 6. 6. 6.
      227. 227. 227. 163. 163. 163. 1. 1. 1. 1. 1. 1. 0. 0. 0. 0. 0. 0.
      0. 0. 0. 0. 0. 0. 0. 0. 0. 0. 0. 0. 1. 1. 1. 2. 2. 2. 1. 1. 1. 0.
      0. 0. 0. 0. 0. 0. 0. 0. 0. 0. 0. 1. 1. 1. 3. 3. 3. 0. 0. 0. 170.
      170. 170. 162. 162. 162. 2. 2. 2. 0. 0. 0. 0. 0. 0. 0. 0. 0. 0. 0.
      0. 0. 0. 0. 0. 0. 0. 0. 0. 0. 0. 0. 0. 0. 0. 0. 0. 0. 0. 0. 0. 0.
      0. 0. 0. 2. 2. 2. 0. 0. 0. 0. 0. 0. 0. 0. 0. 2. 2. 2. 142. 142.
      142. 192. 192. 192. 6. 6. 6. 0. 0. 0. 3. 3. 3. 0. 0. 0. 0. 0. 0.
      0. 0. 0. 0. 0. 0. 0. 0. 0. 0. 0. 0. 0. 0. 0. 0. 0. 0. 2. 2. 2. 0.
      0. 0. 0. 0. 0. 1. 1. 1. 1. 1. 1. 14. 14. 14. 48. 48. 48. 138. 138.
      138. 254. 254. 254. 63. 63. 63. 0. 0. 0. 0. 0. 0. 0. 0. 0. 0. 0.
      0. 0. 0. 0. 0. 0. 0. 0. 0. 0. 0. 0. 0. 1. 1. 1. 1. 1. 1. 0. 0. 0.
      1. 1. 1. 0. 0. 0. 0. 0. 0. 80. 80. 80. 194. 194. 194. 234. 234.
      234. 255. 255. 255. 245. 245. 245. 101. 101. 101. 2. 2. 2. 1. 1.
      1. 0. 0. 0. 0. 0. 0. 0. 0. 0. 0. 0. 0. 0. 0. 0. 0. 0. 0. 0. 0. 0.
      0. 0. 0. 4. 4. 4. 0. 0. 0. 0. 0. 0. 6. 6. 6. 75. 75. 75. 169. 169.
      169. 133. 133. 133. 66. 66. 66. 41. 41. 41. 13. 13. 13. 0. 0. 0.
      2. 2. 2. 2. 2. 2. 0. 0. 0. 0. 0. 0. 0. 0. 0. 0. 0. 0. 1. 1. 1. 3.
      3. 3. 0. 0. 0. 0. 0. 0. 1. 1. 1. 3. 3. 3. 0. 0. 0. 0. 0. 0. 0. 0.
      0. 0. 0. 0. 1. 1. 1. 2. 2. 2. 4. 4. 4. 0. 0. 0. 0. 0. 0. 1. 1. 1.
      0. 0. 0. 0. 0. 0. 0. 0. 0. 0. 0. 0. 0. 0. 0. 1. 1. 1. 1. 1. 1. 0.
      0. 0. 0. 0. 0. 1. 1. 1. 3. 3. 3. 1. 1. 1. 5. 5. 5. 0. 0. 0. 1. 1.
      1. 0. 0. 0. 0. 0. 0. 2. 2. 2. 2. 2. 2. 0. 0. 0. 0. 0. 0. 0. 0. 0.
      0. 0. 0. 0. 0. 0.</_>
    <_>
      0. 0. 0. 0. 0. 0. 0. 0. 0. 0. 0. 0. 0. 0. 0. 0. 0. 0. 0. 0. 0. 0.
      0. 0. 0. 0. 0. 1. 1. 1. 0. 0. 0. 0. 0. 0. 1. 1. 1. 0. 0. 0. 0. 0.
      0. 2. 2. 2. 0. 0. 0. 0. 0. 0. 0. 0. 0. 0. 0. 0. 0. 0. 0. 0. 0. 0.
      0. 0. 0. 0. 0. 0. 0. 0. 0. 0. 0. 0. 0. 0. 0. 0. 0. 0. 1. 1. 1. 0.
      0. 0. 1. 1. 1. 0. 0. 0. 3. 3. 3. 0. 0. 0. 1. 1. 1. 0. 0. 0. 0. 0.
      0. 0. 0. 0. 0. 0. 0. 0. 0. 0. 0. 0. 0. 0. 0. 0. 0. 0. 0. 0. 0. 0.
      0. 0. 0. 0. 0. 0. 0. 0. 0. 0. 0. 0. 0. 0. 0. 1. 1. 1. 0. 0. 0. 3.
      3. 3. 0. 0. 0. 14. 14. 14. 28. 28. 28. 1. 1. 1. 0. 0. 0. 0. 0. 0.
      0. 0. 0. 0. 0. 0. 0. 0. 0. 0. 0. 0. 0. 0. 0. 0. 0. 0. 0. 0. 0. 0.
      0. 0. 0. 0. 0. 0. 0. 0. 2. 2. 2. 0. 0. 0. 3. 3. 3. 0. 0. 0. 1. 1.
      1. 128. 128. 128. 234. 234. 234. 10. 10. 10. 0. 0. 0. 0. 0. 0. 0.
      0. 0. 0. 0. 0. 0. 0. 0. 0. 0. 0. 0. 0. 0. 0. 0. 0. 0. 0. 0. 0. 0.
      0. 0. 0. 0. 0. 0. 0. 0. 0. 0. 0. 0. 0. 0. 0. 0. 0. 0. 0. 43. 43.
      43. 239. 239. 239. 233. 233. 233. 8. 8. 8. 0. 0. 0. 0. 0. 0. 0. 0.
      0. 0. 0. 0. 0. 0. 0. 0. 0. 0. 0. 0. 0. 0. 0. 0. 0. 0. 0. 0. 0. 0.
      0. 0. 0. 0. 0. 0. 1. 1. 1. 5. 5. 5. 0. 0. 0. 0. 0. 0. 101. 101.
      101. 255. 255. 255. 204. 204. 204. 5. 5. 5. 0. 0. 0. 0. 0. 0. 0.
      0. 0. 0. 0. 0. 0. 0. 0. 0. 0. 0. 0. 0. 0. 0. 0. 0. 0. 0. 0. 0. 0.
      0. 0. 0. 0. 0. 0. 0. 0. 0. 0. 2. 2. 2. 0. 0. 0. 52. 52. 52. 225.
      225. 225. 248. 248. 248. 91. 91. 91. 1. 1. 1. 0. 0. 0. 0. 0. 0. 0.
      0. 0. 0. 0. 0. 0. 0. 0. 0. 0. 0. 0. 0. 0. 0. 0. 0. 0. 0. 0. 0. 0.
      0. 0. 0. 0. 0. 0. 0. 1. 1. 1. 0. 0. 0. 0. 0. 0. 141. 141. 141.
      255. 255. 255. 194. 194. 194. 18. 18. 18. 0. 0. 0. 0. 0. 0. 0. 0.
      0. 0. 0. 0. 0. 0. 0. 0. 0. 0. 0. 0. 0. 0. 0. 0. 2. 2. 2. 0. 0. 0.
      0. 0. 0. 3. 3. 3. 0. 0. 0. 1. 1. 1. 0. 0. 0. 94. 94. 94. 248. 248.
      248. 252. 252. 252. 115. 115. 115. 3. 3. 3. 0. 0. 0. 0. 0. 0. 0.
      0. 0. 0. 0. 0. 0. 0. 0. 1. 1. 1. 0. 0. 0. 0. 0. 0. 0. 0. 0. 0. 0.
      0. 3. 3. 3. 0. 0. 0. 1. 1. 1. 2. 2. 2. 14. 14. 14. 199. 199. 199.
      254. 254. 254. 193. 193. 193. 2. 2. 2. 0. 0. 0. 2. 2. 2. 0. 0. 0.
      0. 0. 0. 0. 0. 0. 0. 0. 0. 0. 0. 0. 1. 1. 1. 0. 0. 0. 1. 1. 1. 5.
      5. 5. 0. 0. 0. 1. 1. 1. 0. 0. 0. 22. 22. 22. 171. 171. 171. 255.
      255. 255. 232. 232. 232. 80. 80. 80. 0. 0. 0. 0. 0. 0. 0. 0. 0. 0.
      0. 0. 0. 0. 0. 0. 0. 0. 0. 0. 0. 0. 0. 0. 2. 2. 2. 0. 0. 0. 0. 0.
      0. 0. 0. 0. 0. 0. 0. 1. 1. 1. 26. 26. 26. 186. 186. 186. 250. 250.
      250. 255. 255. 255. 123. 123. 123. 1. 1. 1. 2. 2. 2. 1. 1. 1. 1.
      1. 1. 0. 0. 0. 0. 0. 0. 0. 0. 0. 0. 0. 0. 0. 0. 0. 1. 1. 1. 0. 0.
      0. 0. 0. 0. 2. 2. 2. 3. 3. 3. 0. 0. 0. 178. 178. 178. 254. 254.
      254. 255. 255. 255. 162. 162. 162. 10. 10. 10. 0. 0. 0. 0. 0. 0.
      0. 0. 0. 0. 0. 0. 0. 0. 0. 0. 0. 0. 0. 0. 0. 0. 0. 0. 1. 1. 1. 0.
      0. 0. 4. 4. 4. 0. 0. 0. 0. 0. 0. 0. 0. 0. 22. 22. 22. 219. 219.
      219. 254. 254. 254. 226. 226. 226. 37. 37. 37. 4. 4. 4. 0. 0. 0.
      2. 2. 2. 0. 0. 0. 3. 3. 3. 0. 0. 0. 0. 0. 0. 0. 0. 0. 0. 0. 0. 2.
      2. 2. 0. 0. 0. 0. 0. 0. 0. 0. 0. 4. 4. 4. 2. 2. 2. 121. 121. 121.
      255. 255. 255. 253. 253. 253. 128. 128. 128. 2. 2. 2. 0. 0. 0. 0.
      0. 0. 0. 0. 0. 1. 1. 1. 0. 0. 0. 0. 0. 0. 0. 0. 0. 0. 0. 0. 0. 0.
      0. 0. 0. 0. 1. 1. 1. 1. 1. 1. 1. 1. 1. 0. 0. 0. 19. 19. 19. 202.
      202. 202. 255. 255. 255. 255. 255. 255. 103. 103. 103. 0. 0. 0. 0.
      0. 0. 0. 0. 0. 0. 0. 0. 1. 1. 1. 2. 2. 2. 0. 0. 0. 0. 0. 0. 0. 0.
      0. 0. 0. 0. 1. 1. 1. 0. 0. 0. 1. 1. 1. 3. 3. 3. 0. 0. 0. 7. 7. 7.
      116. 116. 116. 249. 249. 249. 255. 255. 255. 87. 87. 87. 0. 0. 0.
      2. 2. 2. 0. 0. 0. 0. 0. 0. 0. 0. 0. 0. 0. 0. 0. 0. 0. 0. 0. 0. 0.
      0. 0. 0. 0. 0. 1. 1. 1. 0. 0. 0. 0. 0. 0. 1. 1. 1. 2. 2. 2. 0. 0.
      0. 6. 6. 6. 32. 32. 32. 34. 34. 34. 9. 9. 9. 1. 1. 1. 0. 0. 0. 0.
      0. 0. 5. 5. 5. 0. 0. 0. 0. 0. 0. 0. 0. 0. 0. 0. 0. 0. 0. 0. 0. 0.
      0. 0. 0. 0. 3. 3. 3. 0. 0. 0. 0. 0. 0. 0. 0. 0. 1. 1. 1. 0. 0. 0.
      0. 0. 0. 0. 0. 0. 0. 0. 0. 1. 1. 1. 0. 0. 0. 0. 0. 0. 1. 1. 1. 0.
      0. 0. 0. 0. 0. 0. 0. 0. 0. 0. 0. 0. 0. 0. 0. 0. 0. 0. 0. 0. 0. 0.
      0. 0. 0. 0. 1. 1. 1. 1. 1. 1. 1. 1. 1. 0. 0. 0. 2. 2. 2. 2. 2. 2.
      0. 0. 0. 0. 0. 0. 5. 5. 5. 0. 0. 0. 0. 0. 0. 2. 2. 2. 0. 0. 0. 0.
      0. 0. 0. 0. 0. 0. 0. 0. 0. 0. 0.</_>
    <_>
      0. 0. 0. 0. 0. 0. 0. 0. 0. 0. 0. 0. 0. 0. 0. 0. 0. 0. 0. 0. 0. 0.
      0. 0. 3. 3. 3. 0. 0. 0. 3. 3. 3. 0. 0. 0. 2. 2. 2. 2. 2. 2. 0. 0.
      0. 0. 0. 0. 0. 0. 0. 0. 0. 0. 0. 0. 0. 0. 0. 0. 0. 0. 0. 0. 0. 0.
      0. 0. 0. 0. 0. 0. 0. 0. 0. 0. 0. 0. 0. 0. 0. 0. 0. 0. 0. 0. 0. 2.
      2. 2. 0. 0. 0. 3. 3. 3. 0. 0. 0. 0. 0. 0. 0. 0. 0. 1. 1. 1. 0. 0.
      0. 0. 0. 0. 0. 0. 0. 0. 0. 0. 0. 0. 0. 0. 0. 0. 0. 0. 0. 0. 0. 0.
      0. 0. 0. 0. 0. 0. 0. 0. 0. 0. 0. 0. 0. 0. 0. 5. 5. 5. 0. 0. 0. 0.
      0. 0. 2. 2. 2. 2. 2. 2. 0. 0. 0. 1. 1. 1. 0. 0. 0. 0. 0. 0. 0. 0.
      0. 0. 0. 0. 0. 0. 0. 0. 0. 0. 0. 0. 0. 0. 0. 0. 0. 0. 0. 0. 0. 0.
      0. 0. 0. 0. 0. 0. 4. 4. 4. 9. 9. 9. 80. 80. 80. 6. 6. 6. 0. 0. 0.
      1. 1. 1. 0. 0. 0. 0. 0. 0. 0. 0. 0. 0. 0. 0. 0. 0. 0. 0. 0. 0. 0.
      0. 0. 0. 0. 0. 0. 0. 0. 0. 0. 0. 0. 0. 0. 0. 0. 0. 0. 0. 0. 0. 0.
      0. 0. 0. 0. 17. 17. 17. 205. 205. 205. 66. 66. 66. 0. 0. 0. 0. 0.
      0. 1. 1. 1. 0. 0. 0. 0. 0. 0. 0. 0. 0. 0. 0. 0. 0. 0. 0. 0. 0. 0.
      0. 0. 0. 0. 0. 0. 0. 0. 0. 0. 0. 0. 0. 0. 0. 0. 0. 0. 0. 0. 0. 0.
      0. 0. 0. 0. 0. 118. 118. 118. 108. 108. 108. 0. 0. 0. 2. 2. 2. 1.
      1. 1. 0. 0. 0. 0. 0. 0. 0. 0. 0. 0. 0. 0. 0. 0. 0. 0. 0. 0. 0. 0.
      0. 0. 0. 0. 0. 0. 0. 0. 0. 0. 0. 0. 0. 0. 0. 0. 0. 0. 0. 0. 0. 0.
      1. 1. 1. 109. 109. 109. 124. 124. 124. 0. 0. 0. 0. 0. 0. 0. 0. 0.
      3. 3. 3. 0. 0. 0. 0. 0. 0. 0. 0. 0. 0. 0. 0. 0. 0. 0. 0. 0. 0. 0.
      0. 0. 0. 0. 0. 0. 0. 0. 0. 0. 0. 0. 0. 0. 0. 0. 0. 1. 1. 1. 0. 0.
      0. 111. 111. 111. 126. 126. 126. 0. 0. 0. 1. 1. 1. 4. 4. 4. 0. 0.
      0. 0. 0. 0. 0. 0. 0. 0. 0. 0. 0. 0. 0. 0. 0. 0. 0. 0. 0. 0. 0. 0.
      0. 0. 0. 0. 0. 0. 0. 0. 0. 0. 0. 0. 0. 0. 0. 1. 1. 1. 0. 0. 0.
      108. 108. 108. 125. 125. 125. 0. 0. 0. 0. 0. 0. 1. 1. 1. 0. 0. 0.
      0. 0. 0. 0. 0. 0. 0. 0. 0. 0. 0. 0. 0. 0. 0. 0. 0. 0. 0. 0. 0. 0.
      0. 0. 0. 0. 0. 0. 0. 0. 0. 0. 0. 0. 0. 0. 1. 1. 1. 0. 0. 0. 133.
      133. 133. 98. 98. 98. 0. 0. 0. 1. 1. 1. 0. 0. 0. 0. 0. 0. 0. 0. 0.
      0. 0. 0. 0. 0. 0. 0. 0. 0. 0. 0. 0. 0. 0. 0. 0. 0. 0. 0. 0. 0. 0.
      0. 0. 0. 0. 0. 0. 0. 0. 0. 0. 0. 0. 0. 0. 1. 1. 1. 149. 149. 149.
      83. 83. 83. 0. 0. 0. 0. 0. 0. 1. 1. 1. 0. 0. 0. 0. 0. 0. 0. 0. 0.
      0. 0. 0. 0. 0. 0. 0. 0. 0. 0. 0. 0. 0. 0. 0. 0. 0. 0. 0. 0. 0. 0.
      0. 0. 0. 0. 0. 0. 0. 0. 1. 1. 1. 9. 9. 9. 174. 174. 174. 72. 72.
      72. 0. 0. 0. 0. 0. 0. 1. 1. 1. 0. 0. 0. 0. 0. 0. 0. 0. 0. 0. 0. 0.
      0. 0. 0. 0. 0. 0. 0. 0. 0. 0. 0. 0. 0. 0. 0. 0. 0. 0. 0. 0. 0. 0.
      0. 0. 0. 0. 0. 0. 0. 0. 20. 20. 20. 203. 203. 203. 39. 39. 39. 0.
      0. 0. 0. 0. 0. 0. 0. 0. 1. 1. 1. 0. 0. 0. 0. 0. 0. 0. 0. 0. 0. 0.
      0. 0. 0. 0. 0. 0. 0. 0. 0. 0. 0. 0. 0. 0. 0. 0. 0. 0. 0. 0. 0. 0.
      0. 0. 0. 0. 0. 0. 28. 28. 28. 187. 187. 187. 5. 5. 5. 2. 2. 2. 0.
      0. 0. 0. 0. 0. 1. 1. 1. 0. 0. 0. 0. 0. 0. 0. 0. 0. 0. 0. 0. 0. 0.
      0. 0. 0. 0. 0. 0. 0. 0. 0. 0. 0. 0. 0. 0. 0. 0. 0. 0. 0. 0. 0. 0.
      0. 0. 0. 26. 26. 26. 153. 153. 153. 0. 0. 0. 2. 2. 2. 0. 0. 0. 0.
      0. 0. 0. 0. 0. 0. 0. 0. 0. 0. 0. 0. 0. 0. 0. 0. 0. 0. 0. 0. 0. 0.
      0. 0. 0. 0. 0. 0. 0. 0. 0. 0. 0. 0. 0. 0. 0. 0. 0. 0. 0. 3. 3. 3.
      19. 19. 19. 148. 148. 148. 1. 1. 1. 0. 0. 0. 1. 1. 1. 0. 0. 0. 0.
      0. 0. 0. 0. 0. 0. 0. 0. 0. 0. 0. 0. 0. 0. 0. 0. 0. 0. 0. 0. 0. 0.
      0. 0. 0. 0. 0. 0. 0. 0. 0. 0. 0. 0. 0. 0. 0. 0. 0. 0. 0. 44. 44.
      44. 152. 152. 152. 1. 1. 1. 2. 2. 2. 0. 0. 0. 0. 0. 0. 0. 0. 0. 0.
      0. 0. 0. 0. 0. 0. 0. 0. 0. 0. 0. 0. 0. 0. 0. 0. 0. 0. 0. 0. 0. 0.
      0. 0. 0. 0. 0. 0. 0. 0. 0. 0. 0. 0. 0. 2. 2. 2. 27. 27. 27. 107.
      107. 107. 0. 0. 0. 0. 0. 0. 1. 1. 1. 0. 0. 0. 3. 3. 3. 0. 0. 0. 0.
      0. 0. 0. 0. 0. 0. 0. 0. 0. 0. 0. 0. 0. 0. 0. 0. 0. 0. 0. 0. 0. 0.
      0. 0. 0. 0. 0. 0. 0. 0. 0. 0. 0. 0. 0. 0. 0. 0. 0. 0. 0. 2. 2. 2.
      1. 1. 1. 1. 1. 1. 0. 0. 0. 1. 1. 1. 0. 0. 0. 0. 0. 0. 0. 0. 0. 0.
      0. 0. 0. 0. 0. 0. 0. 0. 0. 0. 0. 0. 0. 0. 0. 0. 0. 0. 0. 0. 0. 0.
      0. 0. 0. 0. 0. 0. 0. 0. 0. 0. 7. 7. 7. 0. 0. 0. 0. 0. 0. 0. 0. 0.
      0. 0. 0. 0. 0. 0. 0. 0. 0. 0. 0. 0. 0. 0. 0. 0. 0. 0.</_>
    <_>
      0. 0. 0. 0. 0. 0. 4. 4. 4. 0. 0. 0. 1. 1. 1. 0. 0. 0. 1. 1. 1. 0.
      0. 0. 0. 0. 0. 0. 0. 0. 0. 0. 0. 1. 1. 1. 3. 3. 3. 0. 0. 0. 2. 2.
      2. 0. 0. 0. 0. 0. 0. 0. 0. 0. 0. 0. 0. 0. 0. 0. 4. 4. 4. 0. 0. 0.
      0. 0. 0. 0. 0. 0. 0. 0. 0. 0. 0. 0. 1. 1. 1. 2. 2. 2. 0. 0. 0. 5.
      5. 5. 2. 2. 2. 0. 0. 0. 3. 3. 3. 0. 0. 0. 0. 0. 0. 1. 1. 1. 0. 0.
      0. 0. 0. 0. 0. 0. 0. 0. 0. 0. 1. 1. 1. 0. 0. 0. 3. 3. 3. 0. 0. 0.
      3. 3. 3. 2. 2. 2. 0. 0. 0. 0. 0. 0. 1. 1. 1. 62. 62. 62. 195. 195.
      195. 73. 73. 73. 1. 1. 1. 2. 2. 2. 2. 2. 2. 0. 0. 0. 0. 0. 0. 0.
      0. 0. 0. 0. 0. 0. 0. 0. 0. 0. 0. 1. 1. 1. 0. 0. 0. 1. 1. 1. 0. 0.
      0. 0. 0. 0. 1. 1. 1. 2. 2. 2. 5. 5. 5. 185. 185. 185. 255. 255.
      255. 253. 253. 253. 60. 60. 60. 0. 0. 0. 2. 2. 2. 0. 0. 0. 0. 0.
      0. 0. 0. 0. 0. 0. 0. 0. 0. 0. 0. 0. 0. 2. 2. 2. 2. 2. 2. 0. 0. 0.
      0. 0. 0. 1. 1. 1. 0. 0. 0. 0. 0. 0. 4. 4. 4. 149. 149. 149. 253.
      253. 253. 255. 255. 255. 104. 104. 104. 2. 2. 2. 0. 0. 0. 0. 0. 0.
      0. 0. 0. 0. 0. 0. 0. 0. 0. 0. 0. 0. 0. 0. 0. 1. 1. 1. 1. 1. 1. 0.
      0. 0. 44. 44. 44. 141. 141. 141. 29. 29. 29. 70. 70. 70. 198. 198.
      198. 253. 253. 253. 255. 255. 255. 252. 252. 252. 76. 76. 76. 2.
      2. 2. 0. 0. 0. 4. 4. 4. 0. 0. 0. 0. 0. 0. 0. 0. 0. 0. 0. 0. 1. 1.
      1. 0. 0. 0. 0. 0. 0. 2. 2. 2. 104. 104. 104. 252. 252. 252. 211.
      211. 211. 240. 240. 240. 255. 255. 255. 252. 252. 252. 250. 250.
      250. 255. 255. 255. 76. 76. 76. 0. 0. 0. 2. 2. 2. 0. 0. 0. 0. 0.
      0. 0. 0. 0. 0. 0. 0. 0. 0. 0. 0. 0. 0. 0. 0. 0. 0. 0. 0. 0. 0. 0.
      152. 152. 152. 255. 255. 255. 255. 255. 255. 254. 254. 254. 254.
      254. 254. 255. 255. 255. 253. 253. 253. 255. 255. 255. 128. 128.
      128. 2. 2. 2. 0. 0. 0. 0. 0. 0. 0. 0. 0. 0. 0. 0. 0. 0. 0. 0. 0.
      0. 2. 2. 2. 0. 0. 0. 1. 1. 1. 0. 0. 0. 140. 140. 140. 255. 255.
      255. 250. 250. 250. 238. 238. 238. 187. 187. 187. 214. 214. 214.
      255. 255. 255. 255. 255. 255. 119. 119. 119. 0. 0. 0. 0. 0. 0. 1.
      1. 1. 0. 0. 0. 0. 0. 0. 0. 0. 0. 0. 0. 0. 0. 0. 0. 2. 2. 2. 0. 0.
      0. 0. 0. 0. 42. 42. 42. 203. 203. 203. 160. 160. 160. 71. 71. 71.
      10. 10. 10. 80. 80. 80. 238. 238. 238. 253. 253. 253. 181. 181.
      181. 26. 26. 26. 1. 1. 1. 0. 0. 0. 0. 0. 0. 0. 0. 0. 0. 0. 0. 2.
      2. 2. 1. 1. 1. 1. 1. 1. 0. 0. 0. 0. 0. 0. 4. 4. 4. 47. 47. 47.
      201. 201. 201. 24. 24. 24. 0. 0. 0. 0. 0. 0. 195. 195. 195. 254.
      254. 254. 255. 255. 255. 98. 98. 98. 0. 0. 0. 0. 0. 0. 0. 0. 0. 1.
      1. 1. 0. 0. 0. 0. 0. 0. 0. 0. 0. 0. 0. 0. 0. 0. 0. 0. 0. 0. 0. 0.
      0. 29. 29. 29. 118. 118. 118. 21. 21. 21. 0. 0. 0. 1. 1. 1. 95.
      95. 95. 234. 234. 234. 255. 255. 255. 173. 173. 173. 15. 15. 15.
      1. 1. 1. 0. 0. 0. 0. 0. 0. 3. 3. 3. 0. 0. 0. 3. 3. 3. 0. 0. 0. 0.
      0. 0. 5. 5. 5. 0. 0. 0. 2. 2. 2. 0. 0. 0. 1. 1. 1. 0. 0. 0. 0. 0.
      0. 2. 2. 2. 173. 173. 173. 254. 254. 254. 220. 220. 220. 45. 45.
      45. 0. 0. 0. 0. 0. 0. 4. 4. 4. 0. 0. 0. 0. 0. 0. 0. 0. 0. 3. 3. 3.
      2. 2. 2. 0. 0. 0. 0. 0. 0. 1. 1. 1. 1. 1. 1. 19. 19. 19. 0. 0. 0.
      28. 28. 28. 78. 78. 78. 187. 187. 187. 254. 254. 254. 234. 234.
      234. 166. 166. 166. 85. 85. 85. 82. 82. 82. 32. 32. 32. 3. 3. 3.
      1. 1. 1. 2. 2. 2. 1. 1. 1. 0. 0. 0. 0. 0. 0. 0. 0. 0. 0. 0. 0. 35.
      35. 35. 195. 195. 195. 180. 180. 180. 213. 213. 213. 255. 255.
      255. 252. 252. 252. 255. 255. 255. 254. 254. 254. 253. 253. 253.
      254. 254. 254. 255. 255. 255. 203. 203. 203. 26. 26. 26. 0. 0. 0.
      2. 2. 2. 0. 0. 0. 2. 2. 2. 1. 1. 1. 0. 0. 0. 1. 1. 1. 61. 61. 61.
      218. 218. 218. 236. 236. 236. 229. 229. 229. 228. 228. 228. 227.
      227. 227. 223. 223. 223. 226. 226. 226. 226. 226. 226. 226. 226.
      226. 226. 226. 226. 241. 241. 241. 123. 123. 123. 0. 0. 0. 2. 2.
      2. 0. 0. 0. 1. 1. 1. 0. 0. 0. 2. 2. 2. 0. 0. 0. 2. 2. 2. 41. 41.
      41. 49. 49. 49. 49. 49. 49. 49. 49. 49. 49. 49. 49. 49. 49. 49.
      49. 49. 49. 49. 49. 49. 49. 49. 49. 50. 50. 50. 52. 52. 52. 30.
      30. 30. 3. 3. 3. 0. 0. 0. 0. 0. 0. 2. 2. 2. 0. 0. 0. 0. 0. 0. 2.
      2. 2. 0. 0. 0. 3. 3. 3. 0. 0. 0. 0. 0. 0. 0. 0. 0. 0. 0. 0. 0. 0.
      0. 0. 0. 0. 0. 0. 0. 0. 0. 0. 0. 0. 0. 2. 2. 2. 0. 0. 0. 0. 0. 0.
      0. 0. 0. 0. 0. 0. 2. 2. 2. 1. 1. 1. 0. 0. 0. 3. 3. 3. 1. 1. 1. 0.
      0. 0. 0. 0. 0. 0. 0. 0. 0. 0. 0. 0. 0. 0. 0. 0. 0. 0. 0. 0. 0. 0.
      0. 0. 0. 0. 2. 2. 2. 2. 2. 2. 0. 0. 0. 1. 1. 1. 2. 2. 2. 0. 0. 0.
      0. 0. 0. 3. 3. 3. 0. 0. 0. 0. 0. 0. 1. 1. 1. 2. 2. 2. 0. 0. 0. 0.
      0. 0. 0. 0. 0. 0. 0. 0. 0. 0. 0. 0. 0. 0. 0. 0. 0. 0. 0. 0. 0. 0.
      0. 0. 0. 0. 0. 0. 0. 0. 0. 0.</_>
    <_>
      0. 0. 0. 0. 0. 0. 0. 0. 0. 0. 0. 0. 0. 0. 0. 0. 0. 0. 0. 0. 0. 0.
      0. 0. 1. 1. 1. 0. 0. 0. 0. 0. 0. 3. 3. 3. 0. 0. 0. 2. 2. 2. 0. 0.
      0. 1. 1. 1. 0. 0. 0. 0. 0. 0. 0. 0. 0. 0. 0. 0. 0. 0. 0. 0. 0. 0.
      0. 0. 0. 0. 0. 0. 0. 0. 0. 0. 0. 0. 0. 0. 0. 0. 0. 0. 3. 3. 3. 0.
      0. 0. 2. 2. 2. 0. 0. 0. 0. 0. 0. 0. 0. 0. 0. 0. 0. 1. 1. 1. 0. 0.
      0. 0. 0. 0. 0. 0. 0. 0. 0. 0. 0. 0. 0. 0. 0. 0. 0. 0. 0. 0. 0. 0.
      0. 0. 0. 0. 0. 0. 0. 0. 0. 0. 0. 0. 0. 0. 0. 3. 3. 3. 1. 1. 1. 0.
      0. 0. 0. 0. 0. 0. 0. 0. 4. 4. 4. 0. 0. 0. 0. 0. 0. 0. 0. 0. 0. 0.
      0. 0. 0. 0. 0. 0. 0. 0. 0. 0. 0. 0. 0. 0. 0. 0. 0. 0. 0. 0. 0. 0.
      0. 0. 0. 0. 0. 0. 0. 0. 0. 0. 0. 0. 0. 0. 0. 4. 4. 4. 0. 0. 0. 85.
      85. 85. 54. 54. 54. 0. 0. 0. 0. 0. 0. 0. 0. 0. 0. 0. 0. 0. 0. 0.
      0. 0. 0. 0. 0. 0. 0. 0. 0. 0. 0. 0. 0. 0. 0. 0. 0. 0. 0. 0. 0. 0.
      0. 0. 0. 0. 0. 3. 3. 3. 0. 0. 0. 0. 0. 0. 122. 122. 122. 205. 205.
      205. 52. 52. 52. 4. 4. 4. 0. 0. 0. 0. 0. 0. 0. 0. 0. 0. 0. 0. 0.
      0. 0. 0. 0. 0. 0. 0. 0. 0. 0. 0. 0. 0. 0. 0. 0. 0. 0. 0. 0. 0. 0.
      0. 0. 0. 0. 1. 1. 1. 3. 3. 3. 95. 95. 95. 231. 231. 231. 77. 77.
      77. 0. 0. 0. 0. 0. 0. 0. 0. 0. 0. 0. 0. 0. 0. 0. 0. 0. 0. 0. 0. 0.
      0. 0. 0. 0. 0. 0. 0. 0. 0. 0. 0. 0. 0. 0. 0. 0. 0. 0. 0. 0. 0. 1.
      1. 1. 0. 0. 0. 51. 51. 51. 229. 229. 229. 99. 99. 99. 0. 0. 0. 0.
      0. 0. 0. 0. 0. 0. 0. 0. 0. 0. 0. 0. 0. 0. 0. 0. 0. 0. 0. 0. 0. 0.
      0. 0. 0. 0. 0. 0. 0. 0. 0. 0. 0. 0. 0. 0. 0. 0. 0. 0. 0. 0. 0. 0.
      8. 8. 8. 183. 183. 183. 180. 180. 180. 5. 5. 5. 0. 0. 0. 1. 1. 1.
      0. 0. 0. 0. 0. 0. 0. 0. 0. 0. 0. 0. 0. 0. 0. 0. 0. 0. 0. 0. 0. 0.
      0. 0. 0. 0. 0. 0. 0. 0. 0. 0. 0. 0. 0. 0. 1. 1. 1. 2. 2. 2. 75.
      75. 75. 245. 245. 245. 68. 68. 68. 0. 0. 0. 3. 3. 3. 0. 0. 0. 0.
      0. 0. 0. 0. 0. 0. 0. 0. 0. 0. 0. 0. 0. 0. 0. 0. 0. 1. 1. 1. 0. 0.
      0. 0. 0. 0. 1. 1. 1. 1. 1. 1. 0. 0. 0. 0. 0. 0. 0. 0. 0. 160. 160.
      160. 168. 168. 168. 7. 7. 7. 0. 0. 0. 0. 0. 0. 0. 0. 0. 3. 3. 3.
      0. 0. 0. 0. 0. 0. 0. 0. 0. 0. 0. 0. 0. 0. 0. 1. 1. 1. 0. 0. 0. 0.
      0. 0. 0. 0. 0. 1. 1. 1. 0. 0. 0. 0. 0. 0. 49. 49. 49. 228. 228.
      228. 100. 100. 100. 0. 0. 0. 0. 0. 0. 4. 4. 4. 0. 0. 0. 0. 0. 0.
      0. 0. 0. 0. 0. 0. 0. 0. 0. 0. 0. 0. 0. 0. 0. 0. 0. 0. 0. 0. 0. 0.
      0. 0. 0. 0. 0. 0. 0. 0. 0. 0. 0. 5. 5. 5. 141. 141. 141. 197. 197.
      197. 14. 14. 14. 1. 1. 1. 2. 2. 2. 0. 0. 0. 1. 1. 1. 1. 1. 1. 0.
      0. 0. 0. 0. 0. 0. 0. 0. 0. 0. 0. 0. 0. 0. 0. 0. 0. 1. 1. 1. 0. 0.
      0. 0. 0. 0. 0. 0. 0. 2. 2. 2. 17. 17. 17. 225. 225. 225. 132. 132.
      132. 0. 0. 0. 0. 0. 0. 0. 0. 0. 0. 0. 0. 0. 0. 0. 0. 0. 0. 0. 0.
      0. 0. 0. 0. 0. 0. 0. 0. 0. 0. 1. 1. 1. 0. 0. 0. 1. 1. 1. 0. 0. 0.
      1. 1. 1. 0. 0. 0. 3. 3. 3. 24. 24. 24. 227. 227. 227. 104. 104.
      104. 2. 2. 2. 0. 0. 0. 3. 3. 3. 1. 1. 1. 0. 0. 0. 0. 0. 0. 0. 0.
      0. 0. 0. 0. 0. 0. 0. 0. 0. 0. 0. 0. 0. 0. 0. 0. 1. 1. 1. 0. 0. 0.
      1. 1. 1. 0. 0. 0. 1. 1. 1. 21. 21. 21. 218. 218. 218. 82. 82. 82.
      0. 0. 0. 3. 3. 3. 0. 0. 0. 3. 3. 3. 0. 0. 0. 0. 0. 0. 0. 0. 0. 0.
      0. 0. 0. 0. 0. 0. 0. 0. 1. 1. 1. 0. 0. 0. 1. 1. 1. 0. 0. 0. 1. 1.
      1. 0. 0. 0. 0. 0. 0. 15. 15. 15. 185. 185. 185. 83. 83. 83. 2. 2.
      2. 1. 1. 1. 0. 0. 0. 0. 0. 0. 3. 3. 3. 0. 0. 0. 0. 0. 0. 0. 0. 0.
      0. 0. 0. 0. 0. 0. 0. 0. 0. 0. 0. 0. 0. 0. 0. 0. 0. 0. 0. 0. 0. 0.
      0. 0. 1. 1. 1. 2. 2. 2. 174. 174. 174. 114. 114. 114. 0. 0. 0. 0.
      0. 0. 1. 1. 1. 0. 0. 0. 1. 1. 1. 0. 0. 0. 0. 0. 0. 0. 0. 0. 0. 0.
      0. 0. 0. 0. 0. 0. 0. 0. 0. 0. 0. 0. 0. 0. 0. 0. 0. 0. 0. 0. 0. 0.
      1. 1. 1. 1. 1. 1. 141. 141. 141. 92. 92. 92. 5. 5. 5. 0. 0. 0. 0.
      0. 0. 2. 2. 2. 1. 1. 1. 0. 0. 0. 0. 0. 0. 0. 0. 0. 0. 0. 0. 0. 0.
      0. 0. 0. 0. 0. 0. 0. 0. 0. 0. 0. 0. 0. 0. 0. 0. 0. 0. 0. 0. 0. 0.
      1. 1. 1. 3. 3. 3. 2. 2. 2. 0. 0. 0. 1. 1. 1. 0. 0. 0. 0. 0. 0. 0.
      0. 0. 4. 4. 4. 0. 0. 0. 0. 0. 0. 0. 0. 0. 0. 0. 0. 0. 0. 0. 0. 0.
      0. 0. 0. 0. 0. 0. 0. 0. 0. 0. 0. 0. 0. 0. 0. 0. 0. 0. 0. 1. 1. 1.
      0. 0. 0. 1. 1. 1. 0. 0. 0. 0. 0. 0. 3. 3. 3. 0. 0. 0. 0. 0. 0. 0.
      0. 0. 0. 0. 0. 0. 0. 0. 0. 0. 0.</_>
    <_>
      0. 0. 0. 0. 0. 0. 0. 0. 0. 0. 0. 0. 0. 0. 0. 0. 0. 0. 0. 0. 0. 0.
      0. 0. 0. 0. 0. 1. 1. 1. 3. 3. 3. 0. 0. 0. 0. 0. 0. 3. 3. 3. 1. 1.
      1. 0. 0. 0. 1. 1. 1. 0. 0. 0. 0. 0. 0. 0. 0. 0. 0. 0. 0. 0. 0. 0.
      0. 0. 0. 0. 0. 0. 0. 0. 0. 0. 0. 0. 0. 0. 0. 0. 0. 0. 0. 0. 0. 1.
      1. 1. 0. 0. 0. 3. 3. 3. 0. 0. 0. 0. 0. 0. 0. 0. 0. 4. 4. 4. 0. 0.
      0. 0. 0. 0. 1. 1. 1. 0. 0. 0. 0. 0. 0. 0. 0. 0. 0. 0. 0. 0. 0. 0.
      0. 0. 0. 0. 0. 0. 0. 0. 0. 0. 0. 0. 0. 0. 0. 3. 3. 3. 0. 0. 0. 0.
      0. 0. 7. 7. 7. 5. 5. 5. 31. 31. 31. 27. 27. 27. 3. 3. 3. 0. 0. 0.
      1. 1. 1. 1. 1. 1. 0. 0. 0. 0. 0. 0. 0. 0. 0. 0. 0. 0. 0. 0. 0. 0.
      0. 0. 0. 0. 0. 0. 0. 0. 1. 1. 1. 0. 0. 0. 0. 0. 0. 4. 4. 4. 0. 0.
      0. 30. 30. 30. 227. 227. 227. 205. 205. 205. 14. 14. 14. 1. 1. 1.
      0. 0. 0. 2. 2. 2. 0. 0. 0. 0. 0. 0. 0. 0. 0. 0. 0. 0. 0. 0. 0. 0.
      0. 0. 0. 0. 0. 0. 0. 0. 2. 2. 2. 0. 0. 0. 1. 1. 1. 1. 1. 1. 0. 0.
      0. 83. 83. 83. 243. 243. 243. 196. 196. 196. 14. 14. 14. 1. 1. 1.
      0. 0. 0. 2. 2. 2. 0. 0. 0. 0. 0. 0. 0. 0. 0. 0. 0. 0. 0. 0. 0. 0.
      0. 0. 0. 0. 0. 0. 0. 0. 0. 0. 0. 0. 0. 0. 0. 0. 0. 0. 0. 0. 40.
      40. 40. 217. 217. 217. 253. 253. 253. 86. 86. 86. 3. 3. 3. 0. 0.
      0. 1. 1. 1. 1. 1. 1. 0. 0. 0. 0. 0. 0. 0. 0. 0. 0. 0. 0. 0. 0. 0.
      0. 0. 0. 0. 0. 0. 0. 0. 0. 1. 1. 1. 3. 3. 3. 0. 0. 0. 54. 54. 54.
      201. 201. 201. 253. 253. 253. 212. 212. 212. 17. 17. 17. 0. 0. 0.
      0. 0. 0. 1. 1. 1. 0. 0. 0. 0. 0. 0. 0. 0. 0. 0. 0. 0. 0. 0. 0. 0.
      0. 0. 0. 0. 0. 0. 0. 0. 0. 0. 0. 0. 0. 0. 0. 0. 0. 49. 49. 49.
      192. 192. 192. 254. 254. 254. 223. 223. 223. 72. 72. 72. 2. 2. 2.
      1. 1. 1. 0. 0. 0. 0. 0. 0. 0. 0. 0. 1. 1. 1. 0. 0. 0. 0. 0. 0. 0.
      0. 0. 0. 0. 0. 0. 0. 0. 0. 0. 0. 0. 0. 0. 0. 0. 0. 15. 15. 15.
      176. 176. 176. 253. 253. 253. 248. 248. 248. 97. 97. 97. 0. 0. 0.
      1. 1. 1. 0. 0. 0. 0. 0. 0. 0. 0. 0. 0. 0. 0. 0. 0. 0. 2. 2. 2. 0.
      0. 0. 0. 0. 0. 1. 1. 1. 0. 0. 0. 5. 5. 5. 1. 1. 1. 0. 0. 0. 122.
      122. 122. 246. 246. 246. 254. 254. 254. 142. 142. 142. 2. 2. 2. 0.
      0. 0. 0. 0. 0. 0. 0. 0. 0. 0. 0. 0. 0. 0. 0. 0. 0. 0. 0. 0. 2. 2.
      2. 0. 0. 0. 0. 0. 0. 1. 1. 1. 0. 0. 0. 0. 0. 0. 0. 0. 0. 68. 68.
      68. 197. 197. 197. 255. 255. 255. 183. 183. 183. 24. 24. 24. 1. 1.
      1. 0. 0. 0. 3. 3. 3. 0. 0. 0. 0. 0. 0. 0. 0. 0. 0. 0. 0. 0. 0. 0.
      0. 0. 0. 2. 2. 2. 0. 0. 0. 1. 1. 1. 1. 1. 1. 1. 1. 1. 36. 36. 36.
      216. 216. 216. 252. 252. 252. 217. 217. 217. 41. 41. 41. 0. 0. 0.
      0. 0. 0. 1. 1. 1. 0. 0. 0. 0. 0. 0. 0. 0. 0. 0. 0. 0. 0. 0. 0. 1.
      1. 1. 0. 0. 0. 0. 0. 0. 1. 1. 1. 0. 0. 0. 0. 0. 0. 2. 2. 2. 173.
      173. 173. 255. 255. 255. 244. 244. 244. 77. 77. 77. 0. 0. 0. 0. 0.
      0. 2. 2. 2. 0. 0. 0. 1. 1. 1. 0. 0. 0. 0. 0. 0. 0. 0. 0. 0. 0. 0.
      0. 0. 0. 4. 4. 4. 0. 0. 0. 0. 0. 0. 2. 2. 2. 3. 3. 3. 76. 76. 76.
      235. 235. 235. 255. 255. 255. 131. 131. 131. 0. 0. 0. 0. 0. 0. 3.
      3. 3. 0. 0. 0. 1. 1. 1. 1. 1. 1. 0. 0. 0. 0. 0. 0. 0. 0. 0. 0. 0.
      0. 0. 0. 0. 0. 0. 0. 2. 2. 2. 3. 3. 3. 2. 2. 2. 33. 33. 33. 223.
      223. 223. 255. 255. 255. 152. 152. 152. 9. 9. 9. 0. 0. 0. 3. 3. 3.
      1. 1. 1. 0. 0. 0. 0. 0. 0. 0. 0. 0. 0. 0. 0. 0. 0. 0. 0. 0. 0. 0.
      0. 0. 0. 0. 0. 0. 0. 0. 1. 1. 1. 1. 1. 1. 0. 0. 0. 125. 125. 125.
      255. 255. 255. 213. 213. 213. 33. 33. 33. 1. 1. 1. 0. 0. 0. 0. 0.
      0. 0. 0. 0. 1. 1. 1. 1. 1. 1. 0. 0. 0. 0. 0. 0. 0. 0. 0. 0. 0. 0.
      0. 0. 0. 0. 0. 0. 0. 0. 0. 0. 0. 0. 0. 0. 0. 1. 1. 1. 126. 126.
      126. 255. 255. 255. 95. 95. 95. 0. 0. 0. 0. 0. 0. 0. 0. 0. 0. 0.
      0. 0. 0. 0. 0. 0. 0. 0. 0. 0. 0. 0. 0. 0. 0. 0. 0. 0. 0. 0. 0. 0.
      0. 0. 0. 0. 0. 0. 0. 0. 0. 0. 0. 0. 0. 0. 0. 0. 0. 0. 10. 10. 10.
      36. 36. 36. 6. 6. 6. 0. 0. 0. 0. 0. 0. 0. 0. 0. 0. 0. 0. 0. 0. 0.
      0. 0. 0. 0. 0. 0. 0. 0. 0. 0. 0. 0. 0. 0. 0. 0. 0. 0. 0. 0. 0. 1.
      1. 1. 2. 2. 2. 2. 2. 2. 0. 0. 0. 1. 1. 1. 3. 3. 3. 0. 0. 0. 0. 0.
      0. 0. 0. 0. 0. 0. 0. 0. 0. 0. 0. 0. 0. 0. 0. 0. 0. 0. 0. 0. 0. 0.
      0. 0. 0. 0. 0. 0. 0. 0. 0. 0. 0. 0. 0. 0. 0. 0. 0. 0. 0. 0. 0. 0.
      0. 0. 0. 0. 0. 0. 0. 0. 0. 0. 0. 3. 3. 3. 1. 1. 1. 0. 0. 0. 0. 0.
      0. 0. 0. 0. 0. 0. 0. 0. 0. 0. 0. 0. 0. 0. 0. 0. 0. 0. 0. 0. 0. 0.
      0. 0. 0. 0. 0. 0. 0. 0. 0.</_>
    <_>
      0. 0. 0. 0. 0. 0. 0. 0. 0. 0. 0. 0. 0. 0. 0. 0. 0. 0. 0. 0. 0. 0.
      0. 0. 0. 0. 0. 0. 0. 0. 1. 1. 1. 0. 0. 0. 0. 0. 0. 0. 0. 0. 3. 3.
      3. 0. 0. 0. 0. 0. 0. 0. 0. 0. 0. 0. 0. 0. 0. 0. 0. 0. 0. 0. 0. 0.
      0. 0. 0. 0. 0. 0. 0. 0. 0. 0. 0. 0. 0. 0. 0. 0. 0. 0. 0. 0. 0. 1.
      1. 1. 0. 0. 0. 0. 0. 0. 0. 0. 0. 0. 0. 0. 0. 0. 0. 1. 1. 1. 0. 0.
      0. 0. 0. 0. 0. 0. 0. 0. 0. 0. 0. 0. 0. 0. 0. 0. 0. 0. 0. 0. 0. 0.
      0. 0. 0. 0. 0. 0. 0. 0. 0. 0. 0. 0. 1. 1. 1. 1. 1. 1. 0. 0. 0. 0.
      0. 0. 4. 4. 4. 0. 0. 0. 13. 13. 13. 7. 7. 7. 0. 0. 0. 0. 0. 0. 0.
      0. 0. 0. 0. 0. 0. 0. 0. 0. 0. 0. 0. 0. 0. 0. 0. 0. 0. 0. 0. 0. 0.
      0. 0. 0. 0. 0. 0. 0. 0. 0. 0. 1. 1. 1. 0. 0. 0. 0. 0. 0. 0. 0. 0.
      42. 42. 42. 180. 180. 180. 81. 81. 81. 0. 0. 0. 0. 0. 0. 0. 0. 0.
      0. 0. 0. 0. 0. 0. 0. 0. 0. 0. 0. 0. 0. 0. 0. 0. 0. 0. 0. 0. 0. 0.
      0. 0. 0. 0. 0. 1. 1. 1. 0. 0. 0. 1. 1. 1. 1. 1. 1. 22. 22. 22.
      201. 201. 201. 231. 231. 231. 32. 32. 32. 0. 0. 0. 0. 0. 0. 0. 0.
      0. 0. 0. 0. 0. 0. 0. 0. 0. 0. 0. 0. 0. 0. 0. 0. 0. 0. 0. 0. 0. 0.
      0. 0. 0. 0. 0. 0. 3. 3. 3. 0. 0. 0. 0. 0. 0. 8. 8. 8. 177. 177.
      177. 251. 251. 251. 81. 81. 81. 0. 0. 0. 0. 0. 0. 0. 0. 0. 0. 0.
      0. 0. 0. 0. 0. 0. 0. 0. 0. 0. 0. 0. 0. 0. 0. 0. 0. 0. 0. 0. 0. 0.
      0. 0. 0. 0. 0. 0. 0. 0. 0. 0. 0. 0. 2. 2. 2. 106. 106. 106. 254.
      254. 254. 131. 131. 131. 5. 5. 5. 0. 0. 0. 0. 0. 0. 0. 0. 0. 0. 0.
      0. 0. 0. 0. 0. 0. 0. 0. 0. 0. 0. 0. 0. 0. 0. 0. 0. 0. 0. 0. 0. 0.
      0. 0. 0. 0. 0. 0. 2. 2. 2. 0. 0. 0. 35. 35. 35. 221. 221. 221.
      186. 186. 186. 12. 12. 12. 0. 0. 0. 2. 2. 2. 0. 0. 0. 0. 0. 0. 0.
      0. 0. 0. 0. 0. 1. 1. 1. 0. 0. 0. 2. 2. 2. 0. 0. 0. 1. 1. 1. 0. 0.
      0. 0. 0. 0. 2. 2. 2. 0. 0. 0. 15. 15. 15. 176. 176. 176. 233. 233.
      233. 41. 41. 41. 1. 1. 1. 0. 0. 0. 0. 0. 0. 0. 0. 0. 0. 0. 0. 0.
      0. 0. 0. 0. 0. 0. 0. 0. 1. 1. 1. 0. 0. 0. 1. 1. 1. 2. 2. 2. 0. 0.
      0. 3. 3. 3. 0. 0. 0. 0. 0. 0. 113. 113. 113. 255. 255. 255. 120.
      120. 120. 0. 0. 0. 0. 0. 0. 0. 0. 0. 3. 3. 3. 0. 0. 0. 0. 0. 0. 0.
      0. 0. 0. 0. 0. 1. 1. 1. 2. 2. 2. 0. 0. 0. 0. 0. 0. 1. 1. 1. 3. 3.
      3. 0. 0. 0. 0. 0. 0. 49. 49. 49. 240. 240. 240. 172. 172. 172. 9.
      9. 9. 1. 1. 1. 0. 0. 0. 2. 2. 2. 0. 0. 0. 0. 0. 0. 0. 0. 0. 0. 0.
      0. 0. 0. 0. 0. 0. 0. 1. 1. 1. 2. 2. 2. 0. 0. 0. 0. 0. 0. 0. 0. 0.
      0. 0. 0. 10. 10. 10. 183. 183. 183. 221. 221. 221. 36. 36. 36. 0.
      0. 0. 0. 0. 0. 5. 5. 5. 0. 0. 0. 0. 0. 0. 0. 0. 0. 0. 0. 0. 0. 0.
      0. 0. 0. 0. 0. 0. 0. 0. 0. 0. 1. 1. 1. 0. 0. 0. 1. 1. 1. 0. 0. 0.
      2. 2. 2. 122. 122. 122. 246. 246. 246. 74. 74. 74. 5. 5. 5. 2. 2.
      2. 0. 0. 0. 0. 0. 0. 0. 0. 0. 0. 0. 0. 0. 0. 0. 0. 0. 0. 0. 0. 0.
      0. 0. 0. 3. 3. 3. 0. 0. 0. 0. 0. 0. 0. 0. 0. 0. 0. 0. 2. 2. 2. 65.
      65. 65. 244. 244. 244. 135. 135. 135. 2. 2. 2. 0. 0. 0. 0. 0. 0.
      0. 0. 0. 2. 2. 2. 0. 0. 0. 1. 1. 1. 0. 0. 0. 0. 0. 0. 0. 0. 0. 0.
      0. 0. 0. 0. 0. 0. 0. 0. 2. 2. 2. 0. 0. 0. 0. 0. 0. 7. 7. 7. 179.
      179. 179. 234. 234. 234. 22. 22. 22. 0. 0. 0. 3. 3. 3. 0. 0. 0. 1.
      1. 1. 0. 0. 0. 1. 1. 1. 1. 1. 1. 0. 0. 0. 0. 0. 0. 0. 0. 0. 0. 0.
      0. 1. 1. 1. 0. 0. 0. 0. 0. 0. 2. 2. 2. 0. 0. 0. 43. 43. 43. 228.
      228. 228. 198. 198. 198. 3. 3. 3. 0. 0. 0. 0. 0. 0. 0. 0. 0. 0. 0.
      0. 1. 1. 1. 0. 0. 0. 0. 0. 0. 0. 0. 0. 0. 0. 0. 0. 0. 0. 0. 0. 0.
      1. 1. 1. 0. 0. 0. 1. 1. 1. 1. 1. 1. 0. 0. 0. 76. 76. 76. 253. 253.
      253. 198. 198. 198. 7. 7. 7. 3. 3. 3. 0. 0. 0. 0. 0. 0. 1. 1. 1.
      1. 1. 1. 0. 0. 0. 0. 0. 0. 0. 0. 0. 0. 0. 0. 0. 0. 0. 0. 0. 0. 0.
      0. 0. 1. 1. 1. 0. 0. 0. 0. 0. 0. 2. 2. 2. 4. 4. 4. 33. 33. 33. 21.
      21. 21. 3. 3. 3. 0. 0. 0. 0. 0. 0. 0. 0. 0. 1. 1. 1. 0. 0. 0. 0.
      0. 0. 1. 1. 1. 0. 0. 0. 0. 0. 0. 0. 0. 0. 0. 0. 0. 1. 1. 1. 1. 1.
      1. 0. 0. 0. 0. 0. 0. 0. 0. 0. 2. 2. 2. 0. 0. 0. 2. 2. 2. 0. 0. 0.
      0. 0. 0. 0. 0. 0. 1. 1. 1. 0. 0. 0. 0. 0. 0. 0. 0. 0. 1. 1. 1. 0.
      0. 0. 0. 0. 0. 0. 0. 0. 0. 0. 0. 1. 1. 1. 2. 2. 2. 0. 0. 0. 2. 2.
      2. 0. 0. 0. 0. 0. 0. 0. 0. 0. 0. 0. 0. 0. 0. 0. 0. 0. 0. 0. 0. 0.
      1. 1. 1. 1. 1. 1. 0. 0. 0. 0. 0. 0. 1. 1. 1. 0. 0. 0. 0. 0. 0. 0.
      0. 0. 0. 0. 0.</_>
    <_>
      0. 0. 0. 0. 0. 0. 0. 0. 0. 4. 4. 4. 0. 0. 0. 0. 0. 0. 0. 0. 0. 2.
      2. 2. 1. 1. 1. 0. 0. 0. 0. 0. 0. 2. 2. 2. 1. 1. 1. 0. 0. 0. 2. 2.
      2. 0. 0. 0. 0. 0. 0. 4. 4. 4. 0. 0. 0. 0. 0. 0. 0. 0. 0. 3. 3. 3.
      0. 0. 0. 0. 0. 0. 1. 1. 1. 2. 2. 2. 1. 1. 1. 0. 0. 0. 0. 0. 0. 3.
      3. 3. 2. 2. 2. 0. 0. 0. 0. 0. 0. 1. 1. 1. 0. 0. 0. 1. 1. 1. 0. 0.
      0. 0. 0. 0. 0. 0. 0. 0. 0. 0. 3. 3. 3. 0. 0. 0. 2. 2. 2. 1. 1. 1.
      0. 0. 0. 0. 0. 0. 0. 0. 0. 2. 2. 2. 0. 0. 0. 0. 0. 0. 2. 2. 2. 30.
      30. 30. 36. 36. 36. 33. 33. 33. 9. 9. 9. 0. 0. 0. 0. 0. 0. 0. 0.
      0. 4. 4. 4. 2. 2. 2. 0. 0. 0. 0. 0. 0. 0. 0. 0. 1. 1. 1. 0. 0. 0.
      4. 4. 4. 0. 0. 0. 0. 0. 0. 2. 2. 2. 0. 0. 0. 92. 92. 92. 245. 245.
      245. 253. 253. 253. 250. 250. 250. 125. 125. 125. 2. 2. 2. 4. 4.
      4. 0. 0. 0. 0. 0. 0. 1. 1. 1. 2. 2. 2. 3. 3. 3. 0. 0. 0. 0. 0. 0.
      0. 0. 0. 0. 0. 0. 0. 0. 0. 2. 2. 2. 0. 0. 0. 115. 115. 115. 243.
      243. 243. 163. 163. 163. 140. 140. 140. 255. 255. 255. 218. 218.
      218. 18. 18. 18. 0. 0. 0. 1. 1. 1. 1. 1. 1. 0. 0. 0. 0. 0. 0. 0.
      0. 0. 0. 0. 0. 0. 0. 0. 2. 2. 2. 0. 0. 0. 5. 5. 5. 0. 0. 0. 86.
      86. 86. 246. 246. 246. 206. 206. 206. 41. 41. 41. 137. 137. 137.
      250. 250. 250. 254. 254. 254. 171. 171. 171. 12. 12. 12. 0. 0. 0.
      2. 2. 2. 0. 0. 0. 2. 2. 2. 0. 0. 0. 3. 3. 3. 0. 0. 0. 0. 0. 0. 0.
      0. 0. 0. 0. 0. 34. 34. 34. 222. 222. 222. 236. 236. 236. 90. 90.
      90. 182. 182. 182. 255. 255. 255. 255. 255. 255. 253. 253. 253.
      242. 242. 242. 78. 78. 78. 4. 4. 4. 0. 0. 0. 1. 1. 1. 0. 0. 0. 0.
      0. 0. 0. 0. 0. 1. 1. 1. 2. 2. 2. 0. 0. 0. 11. 11. 11. 184. 184.
      184. 255. 255. 255. 117. 117. 117. 121. 121. 121. 251. 251. 251.
      255. 255. 255. 203. 203. 203. 150. 150. 150. 243. 243. 243. 88.
      88. 88. 0. 0. 0. 2. 2. 2. 1. 1. 1. 1. 1. 1. 0. 0. 0. 2. 2. 2. 1.
      1. 1. 0. 0. 0. 3. 3. 3. 83. 83. 83. 254. 254. 254. 149. 149. 149.
      75. 75. 75. 241. 241. 241. 240. 240. 240. 162. 162. 162. 33. 33.
      33. 96. 96. 96. 249. 249. 249. 90. 90. 90. 0. 0. 0. 0. 0. 0. 1. 1.
      1. 3. 3. 3. 0. 0. 0. 0. 0. 0. 0. 0. 0. 4. 4. 4. 2. 2. 2. 175. 175.
      175. 234. 234. 234. 51. 51. 51. 176. 176. 176. 226. 226. 226. 69.
      69. 69. 6. 6. 6. 1. 1. 1. 134. 134. 134. 247. 247. 247. 80. 80.
      80. 3. 3. 3. 0. 0. 0. 0. 0. 0. 0. 0. 0. 3. 3. 3. 0. 0. 0. 0. 0. 0.
      0. 0. 0. 74. 74. 74. 255. 255. 255. 169. 169. 169. 46. 46. 46.
      225. 225. 225. 149. 149. 149. 1. 1. 1. 0. 0. 0. 7. 7. 7. 197. 197.
      197. 224. 224. 224. 42. 42. 42. 0. 0. 0. 0. 0. 0. 1. 1. 1. 2. 2.
      2. 0. 0. 0. 0. 0. 0. 0. 0. 0. 5. 5. 5. 161. 161. 161. 232. 232.
      232. 47. 47. 47. 122. 122. 122. 250. 250. 250. 28. 28. 28. 0. 0.
      0. 3. 3. 3. 92. 92. 92. 250. 250. 250. 116. 116. 116. 4. 4. 4. 0.
      0. 0. 2. 2. 2. 1. 1. 1. 1. 1. 1. 2. 2. 2. 0. 0. 0. 2. 2. 2. 37.
      37. 37. 247. 247. 247. 193. 193. 193. 18. 18. 18. 171. 171. 171.
      184. 184. 184. 1. 1. 1. 0. 0. 0. 40. 40. 40. 219. 219. 219. 233.
      233. 233. 27. 27. 27. 0. 0. 0. 0. 0. 0. 0. 0. 0. 0. 0. 0. 0. 0. 0.
      0. 0. 0. 2. 2. 2. 0. 0. 0. 42. 42. 42. 255. 255. 255. 150. 150.
      150. 44. 44. 44. 237. 237. 237. 75. 75. 75. 2. 2. 2. 37. 37. 37.
      182. 182. 182. 254. 254. 254. 117. 117. 117. 0. 0. 0. 1. 1. 1. 1.
      1. 1. 0. 0. 0. 0. 0. 0. 1. 1. 1. 0. 0. 0. 1. 1. 1. 0. 0. 0. 89.
      89. 89. 255. 255. 255. 149. 149. 149. 103. 103. 103. 205. 205.
      205. 51. 51. 51. 127. 127. 127. 226. 226. 226. 251. 251. 251. 161.
      161. 161. 8. 8. 8. 1. 1. 1. 0. 0. 0. 0. 0. 0. 0. 0. 0. 1. 1. 1. 0.
      0. 0. 0. 0. 0. 0. 0. 0. 0. 0. 0. 37. 37. 37. 228. 228. 228. 240.
      240. 240. 232. 232. 232. 247. 247. 247. 251. 251. 251. 254. 254.
      254. 196. 196. 196. 80. 80. 80. 0. 0. 0. 1. 1. 1. 0. 0. 0. 0. 0.
      0. 0. 0. 0. 2. 2. 2. 0. 0. 0. 1. 1. 1. 0. 0. 0. 2. 2. 2. 0. 0. 0.
      0. 0. 0. 79. 79. 79. 187. 187. 187. 247. 247. 247. 255. 255. 255.
      220. 220. 220. 154. 154. 154. 19. 19. 19. 0. 0. 0. 0. 0. 0. 2. 2.
      2. 0. 0. 0. 0. 0. 0. 0. 0. 0. 0. 0. 0. 0. 0. 0. 0. 0. 0. 2. 2. 2.
      0. 0. 0. 2. 2. 2. 0. 0. 0. 0. 0. 0. 12. 12. 12. 36. 36. 36. 34.
      34. 34. 24. 24. 24. 9. 9. 9. 0. 0. 0. 1. 1. 1. 1. 1. 1. 0. 0. 0.
      1. 1. 1. 0. 0. 0. 0. 0. 0. 0. 0. 0. 0. 0. 0. 1. 1. 1. 1. 1. 1. 0.
      0. 0. 0. 0. 0. 3. 3. 3. 0. 0. 0. 0. 0. 0. 3. 3. 3. 2. 2. 2. 2. 2.
      2. 0. 0. 0. 1. 1. 1. 0. 0. 0. 0. 0. 0. 4. 4. 4. 0. 0. 0. 0. 0. 0.
      0. 0. 0. 0. 0. 0. 0. 0. 0. 0. 0. 0. 0. 0. 0. 2. 2. 2. 1. 1. 1. 0.
      0. 0. 0. 0. 0. 3. 3. 3. 0. 0. 0. 0. 0. 0. 0. 0. 0. 5. 5. 5. 0. 0.
      0. 1. 1. 1. 0. 0. 0. 2. 2. 2. 0. 0. 0. 0. 0. 0. 0. 0. 0. 0. 0. 0.
      0. 0. 0.</_>
    <_>
      0. 0. 0. 0. 0. 0. 2. 2. 2. 0. 0. 0. 0. 0. 0. 0. 0. 0. 2. 2. 2. 0.
      0. 0. 1. 1. 1. 1. 1. 1. 0. 0. 0. 0. 0. 0. 2. 2. 2. 0. 0. 0. 1. 1.
      1. 0. 0. 0. 0. 0. 0. 0. 0. 0. 0. 0. 0. 0. 0. 0. 0. 0. 0. 0. 0. 0.
      1. 1. 1. 0. 0. 0. 0. 0. 0. 0. 0. 0. 1. 1. 1. 0. 0. 0. 0. 0. 0. 0.
      0. 0. 1. 1. 1. 3. 3. 3. 0. 0. 0. 1. 1. 1. 0. 0. 0. 0. 0. 0. 0. 0.
      0. 0. 0. 0. 0. 0. 0. 0. 0. 0. 3. 3. 3. 0. 0. 0. 0. 0. 0. 2. 2. 2.
      0. 0. 0. 0. 0. 0. 1. 1. 1. 1. 1. 1. 0. 0. 0. 3. 3. 3. 0. 0. 0. 0.
      0. 0. 47. 47. 47. 216. 216. 216. 182. 182. 182. 5. 5. 5. 0. 0. 0.
      0. 0. 0. 0. 0. 0. 0. 0. 0. 0. 0. 0. 0. 0. 0. 0. 0. 0. 3. 3. 3. 0.
      0. 0. 0. 0. 0. 0. 0. 0. 0. 0. 0. 0. 0. 0. 1. 1. 1. 0. 0. 0. 18.
      18. 18. 197. 197. 197. 254. 254. 254. 172. 172. 172. 0. 0. 0. 0.
      0. 0. 0. 0. 0. 0. 0. 0. 0. 0. 0. 0. 0. 0. 1. 1. 1. 5. 5. 5. 11.
      11. 11. 6. 6. 6. 4. 4. 4. 0. 0. 0. 1. 1. 1. 2. 2. 2. 0. 0. 0. 35.
      35. 35. 184. 184. 184. 250. 250. 250. 211. 211. 211. 43. 43. 43.
      1. 1. 1. 0. 0. 0. 0. 0. 0. 0. 0. 0. 0. 0. 0. 0. 0. 0. 0. 0. 0. 2.
      2. 2. 5. 5. 5. 1. 1. 1. 0. 0. 0. 0. 0. 0. 0. 0. 0. 0. 0. 0. 12.
      12. 12. 202. 202. 202. 223. 223. 223. 144. 144. 144. 249. 249.
      249. 81. 81. 81. 0. 0. 0. 0. 0. 0. 0. 0. 0. 0. 0. 0. 0. 0. 0. 2.
      2. 2. 0. 0. 0. 1. 1. 1. 0. 0. 0. 0. 0. 0. 0. 0. 0. 2. 2. 2. 1. 1.
      1. 9. 9. 9. 149. 149. 149. 237. 237. 237. 86. 86. 86. 24. 24. 24.
      246. 246. 246. 182. 182. 182. 3. 3. 3. 0. 0. 0. 0. 0. 0. 0. 0. 0.
      0. 0. 0. 1. 1. 1. 0. 0. 0. 1. 1. 1. 0. 0. 0. 1. 1. 1. 0. 0. 0. 2.
      2. 2. 0. 0. 0. 145. 145. 145. 250. 250. 250. 91. 91. 91. 0. 0. 0.
      15. 15. 15. 213. 213. 213. 213. 213. 213. 4. 4. 4. 0. 0. 0. 0. 0.
      0. 0. 0. 0. 0. 0. 0. 0. 0. 0. 4. 4. 4. 0. 0. 0. 1. 1. 1. 0. 0. 0.
      0. 0. 0. 0. 0. 0. 116. 116. 116. 241. 241. 241. 115. 115. 115. 3.
      3. 3. 0. 0. 0. 13. 13. 13. 197. 197. 197. 207. 207. 207. 6. 6. 6.
      0. 0. 0. 0. 0. 0. 0. 0. 0. 0. 0. 0. 0. 0. 0. 0. 0. 0. 1. 1. 1. 0.
      0. 0. 1. 1. 1. 3. 3. 3. 91. 91. 91. 246. 246. 246. 146. 146. 146.
      5. 5. 5. 2. 2. 2. 0. 0. 0. 29. 29. 29. 245. 245. 245. 203. 203.
      203. 4. 4. 4. 0. 0. 0. 0. 0. 0. 0. 0. 0. 0. 0. 0. 2. 2. 2. 0. 0.
      0. 0. 0. 0. 0. 0. 0. 1. 1. 1. 45. 45. 45. 217. 217. 217. 227. 227.
      227. 21. 21. 21. 0. 0. 0. 0. 0. 0. 0. 0. 0. 150. 150. 150. 252.
      252. 252. 114. 114. 114. 0. 0. 0. 0. 0. 0. 0. 0. 0. 0. 0. 0. 0. 0.
      0. 0. 0. 0. 0. 0. 0. 3. 3. 3. 0. 0. 0. 1. 1. 1. 185. 185. 185.
      255. 255. 255. 92. 92. 92. 3. 3. 3. 0. 0. 0. 2. 2. 2. 100. 100.
      100. 255. 255. 255. 204. 204. 204. 23. 23. 23. 0. 0. 0. 0. 0. 0.
      0. 0. 0. 0. 0. 0. 0. 0. 0. 1. 1. 1. 0. 0. 0. 0. 0. 0. 1. 1. 1.
      115. 115. 115. 255. 255. 255. 181. 181. 181. 11. 11. 11. 0. 0. 0.
      2. 2. 2. 82. 82. 82. 233. 233. 233. 231. 231. 231. 53. 53. 53. 0.
      0. 0. 2. 2. 2. 0. 0. 0. 0. 0. 0. 0. 0. 0. 0. 0. 0. 1. 1. 1. 1. 1.
      1. 0. 0. 0. 2. 2. 2. 191. 191. 191. 248. 248. 248. 62. 62. 62. 0.
      0. 0. 32. 32. 32. 118. 118. 118. 250. 250. 250. 236. 236. 236. 71.
      71. 71. 2. 2. 2. 4. 4. 4. 0. 0. 0. 0. 0. 0. 0. 0. 0. 0. 0. 0. 0.
      0. 0. 0. 0. 0. 0. 0. 0. 0. 0. 0. 32. 32. 32. 226. 226. 226. 223.
      223. 223. 91. 91. 91. 169. 169. 169. 222. 222. 222. 255. 255. 255.
      189. 189. 189. 66. 66. 66. 0. 0. 0. 0. 0. 0. 0. 0. 0. 0. 0. 0. 0.
      0. 0. 0. 0. 0. 0. 0. 0. 0. 0. 0. 0. 0. 0. 0. 0. 0. 2. 2. 2. 18.
      18. 18. 183. 183. 183. 255. 255. 255. 253. 253. 253. 243. 243.
      243. 202. 202. 202. 117. 117. 117. 7. 7. 7. 0. 0. 0. 1. 1. 1. 2.
      2. 2. 0. 0. 0. 1. 1. 1. 0. 0. 0. 0. 0. 0. 0. 0. 0. 0. 0. 0. 0. 0.
      0. 2. 2. 2. 0. 0. 0. 0. 0. 0. 41. 41. 41. 105. 105. 105. 111. 111.
      111. 64. 64. 64. 10. 10. 10. 3. 3. 3. 0. 0. 0. 0. 0. 0. 1. 1. 1.
      0. 0. 0. 0. 0. 0. 1. 1. 1. 0. 0. 0. 0. 0. 0. 0. 0. 0. 0. 0. 0. 2.
      2. 2. 0. 0. 0. 1. 1. 1. 1. 1. 1. 0. 0. 0. 1. 1. 1. 3. 3. 3. 0. 0.
      0. 3. 3. 3. 0. 0. 0. 0. 0. 0. 0. 0. 0. 1. 1. 1. 0. 0. 0. 0. 0. 0.
      0. 0. 0. 0. 0. 0. 0. 0. 0. 0. 0. 0. 0. 0. 0. 0. 0. 0. 0. 0. 0. 2.
      2. 2. 3. 3. 3. 0. 0. 0. 0. 0. 0. 1. 1. 1. 1. 1. 1. 0. 0. 0. 0. 0.
      0. 0. 0. 0. 1. 1. 1. 1. 1. 1. 0. 0. 0. 0. 0. 0. 0. 0. 0. 0. 0. 0.
      0. 0. 0. 0. 0. 0. 0. 0. 0. 1. 1. 1. 0. 0. 0. 0. 0. 0. 0. 0. 0. 0.
      0. 0. 0. 0. 0. 0. 0. 0. 0. 0. 0. 0. 0. 0. 1. 1. 1. 1. 1. 1. 0. 0.
      0. 0. 0. 0. 0. 0. 0. 1. 1. 1. 1. 1. 1. 0. 0. 0. 0. 0. 0. 0. 0. 0.
      0. 0. 0.</_>
    <_>
      1. 1. 1. 0. 0. 0. 1. 1. 1. 2. 2. 2. 0. 0. 0. 0. 0. 0. 2. 2. 2. 0.
      0. 0. 1. 1. 1. 0. 0. 0. 0. 0. 0. 0. 0. 0. 0. 0. 0. 1. 1. 1. 0. 0.
      0. 1. 1. 1. 0. 0. 0. 0. 0. 0. 0. 0. 0. 0. 0. 0. 2. 2. 2. 0. 0. 0.
      0. 0. 0. 0. 0. 0. 1. 1. 1. 3. 3. 3. 0. 0. 0. 0. 0. 0. 0. 0. 0. 1.
      1. 1. 0. 0. 0. 0. 0. 0. 3. 3. 3. 0. 0. 0. 1. 1. 1. 0. 0. 0. 0. 0.
      0. 0. 0. 0. 0. 0. 0. 0. 0. 0. 0. 0. 0. 3. 3. 3. 0. 0. 0. 2. 2. 2.
      1. 1. 1. 0. 0. 0. 0. 0. 0. 2. 2. 2. 0. 0. 0. 0. 0. 0. 0. 0. 0. 1.
      1. 1. 0. 0. 0. 0. 0. 0. 0. 0. 0. 0. 0. 0. 0. 0. 0. 0. 0. 0. 0. 0.
      0. 0. 0. 0. 1. 1. 1. 0. 0. 0. 2. 2. 2. 1. 1. 1. 0. 0. 0. 3. 3. 3.
      0. 0. 0. 0. 0. 0. 1. 1. 1. 46. 46. 46. 88. 88. 88. 14. 14. 14. 2.
      2. 2. 2. 2. 2. 0. 0. 0. 0. 0. 0. 0. 0. 0. 0. 0. 0. 0. 0. 0. 0. 0.
      0. 2. 2. 2. 0. 0. 0. 0. 0. 0. 0. 0. 0. 3. 3. 3. 0. 0. 0. 2. 2. 2.
      1. 1. 1. 32. 32. 32. 204. 204. 204. 242. 242. 242. 204. 204. 204.
      91. 91. 91. 2. 2. 2. 0. 0. 0. 3. 3. 3. 0. 0. 0. 0. 0. 0. 0. 0. 0.
      0. 0. 0. 0. 0. 0. 0. 0. 0. 0. 0. 0. 3. 3. 3. 0. 0. 0. 1. 1. 1. 1.
      1. 1. 18. 18. 18. 171. 171. 171. 219. 219. 219. 40. 40. 40. 140.
      140. 140. 252. 252. 252. 137. 137. 137. 17. 17. 17. 0. 0. 0. 0. 0.
      0. 0. 0. 0. 0. 0. 0. 0. 0. 0. 0. 0. 0. 2. 2. 2. 0. 0. 0. 0. 0. 0.
      0. 0. 0. 2. 2. 2. 27. 27. 27. 190. 190. 190. 229. 229. 229. 77.
      77. 77. 0. 0. 0. 6. 6. 6. 167. 167. 167. 254. 254. 254. 165. 165.
      165. 5. 5. 5. 0. 0. 0. 0. 0. 0. 0. 0. 0. 0. 0. 0. 0. 0. 0. 0. 0.
      0. 0. 0. 0. 2. 2. 2. 1. 1. 1. 0. 0. 0. 91. 91. 91. 254. 254. 254.
      172. 172. 172. 4. 4. 4. 1. 1. 1. 0. 0. 0. 29. 29. 29. 199. 199.
      199. 252. 252. 252. 43. 43. 43. 0. 0. 0. 0. 0. 0. 0. 0. 0. 0. 0.
      0. 1. 1. 1. 0. 0. 0. 0. 0. 0. 2. 2. 2. 1. 1. 1. 27. 27. 27. 192.
      192. 192. 254. 254. 254. 115. 115. 115. 1. 1. 1. 0. 0. 0. 0. 0. 0.
      0. 0. 0. 36. 36. 36. 226. 226. 226. 138. 138. 138. 0. 0. 0. 2. 2.
      2. 0. 0. 0. 0. 0. 0. 0. 0. 0. 2. 2. 2. 0. 0. 0. 0. 0. 0. 0. 0. 0.
      82. 82. 82. 255. 255. 255. 230. 230. 230. 49. 49. 49. 1. 1. 1. 0.
      0. 0. 3. 3. 3. 0. 0. 0. 1. 1. 1. 160. 160. 160. 200. 200. 200. 7.
      7. 7. 0. 0. 0. 0. 0. 0. 3. 3. 3. 0. 0. 0. 2. 2. 2. 0. 0. 0. 0. 0.
      0. 4. 4. 4. 129. 129. 129. 197. 197. 197. 45. 45. 45. 2. 2. 2. 0.
      0. 0. 2. 2. 2. 0. 0. 0. 0. 0. 0. 2. 2. 2. 86. 86. 86. 228. 228.
      228. 57. 57. 57. 5. 5. 5. 0. 0. 0. 0. 0. 0. 2. 2. 2. 0. 0. 0. 0.
      0. 0. 3. 3. 3. 9. 9. 9. 237. 237. 237. 166. 166. 166. 4. 4. 4. 0.
      0. 0. 0. 0. 0. 0. 0. 0. 2. 2. 2. 0. 0. 0. 2. 2. 2. 69. 69. 69.
      223. 223. 223. 56. 56. 56. 0. 0. 0. 0. 0. 0. 4. 4. 4. 0. 0. 0. 0.
      0. 0. 4. 4. 4. 0. 0. 0. 7. 7. 7. 188. 188. 188. 228. 228. 228. 19.
      19. 19. 1. 1. 1. 0. 0. 0. 1. 1. 1. 1. 1. 1. 3. 3. 3. 0. 0. 0. 14.
      14. 14. 209. 209. 209. 58. 58. 58. 2. 2. 2. 0. 0. 0. 0. 0. 0. 2.
      2. 2. 0. 0. 0. 0. 0. 0. 0. 0. 0. 0. 0. 0. 82. 82. 82. 242. 242.
      242. 32. 32. 32. 2. 2. 2. 0. 0. 0. 0. 0. 0. 0. 0. 0. 0. 0. 0. 2.
      2. 2. 36. 36. 36. 161. 161. 161. 17. 17. 17. 0. 0. 0. 4. 4. 4. 0.
      0. 0. 0. 0. 0. 5. 5. 5. 1. 1. 1. 0. 0. 0. 0. 0. 0. 21. 21. 21.
      173. 173. 173. 157. 157. 157. 0. 0. 0. 3. 3. 3. 0. 0. 0. 1. 1. 1.
      0. 0. 0. 0. 0. 0. 102. 102. 102. 56. 56. 56. 1. 1. 1. 0. 0. 0. 1.
      1. 1. 0. 0. 0. 1. 1. 1. 0. 0. 0. 0. 0. 0. 3. 3. 3. 0. 0. 0. 0. 0.
      0. 73. 73. 73. 233. 233. 233. 97. 97. 97. 0. 0. 0. 0. 0. 0. 0. 0.
      0. 1. 1. 1. 94. 94. 94. 170. 170. 170. 8. 8. 8. 0. 0. 0. 1. 1. 1.
      0. 0. 0. 0. 0. 0. 0. 0. 0. 1. 1. 1. 1. 1. 1. 1. 1. 1. 1. 1. 1. 0.
      0. 0. 2. 2. 2. 152. 152. 152. 238. 238. 238. 112. 112. 112. 35.
      35. 35. 7. 7. 7. 81. 81. 81. 203. 203. 203. 56. 56. 56. 0. 0. 0.
      0. 0. 0. 0. 0. 0. 0. 0. 0. 0. 0. 0. 0. 0. 0. 1. 1. 1. 0. 0. 0. 0.
      0. 0. 0. 0. 0. 2. 2. 2. 0. 0. 0. 6. 6. 6. 74. 74. 74. 168. 168.
      168. 148. 148. 148. 113. 113. 113. 133. 133. 133. 84. 84. 84. 0.
      0. 0. 0. 0. 0. 0. 0. 0. 0. 0. 0. 0. 0. 0. 0. 0. 0. 0. 0. 0. 2. 2.
      2. 0. 0. 0. 0. 0. 0. 3. 3. 3. 0. 0. 0. 2. 2. 2. 1. 1. 1. 1. 1. 1.
      0. 0. 0. 2. 2. 2. 0. 0. 0. 0. 0. 0. 1. 1. 1. 1. 1. 1. 1. 1. 1. 0.
      0. 0. 0. 0. 0. 0. 0. 0. 0. 0. 0. 2. 2. 2. 0. 0. 0. 0. 0. 0. 1. 1.
      1. 1. 1. 1. 0. 0. 0. 0. 0. 0. 2. 2. 2. 2. 2. 2. 0. 0. 0. 0. 0. 0.
      4. 4. 4. 0. 0. 0. 0. 0. 0. 0. 0. 0. 0. 0. 0. 0. 0. 0. 0. 0. 0. 0.
      0. 0. 0. 0. 0.</_>
    <_>
      0. 0. 0. 0. 0. 0. 4. 4. 4. 0. 0. 0. 0. 0. 0. 0. 0. 0. 2. 2. 2. 0.
      0. 0. 0. 0. 0. 1. 1. 1. 1. 1. 1. 0. 0. 0. 0. 0. 0. 0. 0. 0. 1. 1.
      1. 0. 0. 0. 0. 0. 0. 3. 3. 3. 0. 0. 0. 0. 0. 0. 1. 1. 1. 0. 0. 0.
      0. 0. 0. 3. 3. 3. 0. 0. 0. 1. 1. 1. 0. 0. 0. 3. 3. 3. 0. 0. 0. 0.
      0. 0. 0. 0. 0. 4. 4. 4. 0. 0. 0. 2. 2. 2. 1. 1. 1. 0. 0. 0. 0. 0.
      0. 0. 0. 0. 1. 1. 1. 4. 4. 4. 0. 0. 0. 0. 0. 0. 4. 4. 4. 0. 0. 0.
      0. 0. 0. 0. 0. 0. 5. 5. 5. 0. 0. 0. 0. 0. 0. 3. 3. 3. 0. 0. 0. 0.
      0. 0. 2. 2. 2. 0. 0. 0. 0. 0. 0. 0. 0. 0. 2. 2. 2. 2. 2. 2. 0. 0.
      0. 0. 0. 0. 2. 2. 2. 0. 0. 0. 1. 1. 1. 0. 0. 0. 3. 3. 3. 4. 4. 4.
      0. 0. 0. 3. 3. 3. 1. 1. 1. 2. 2. 2. 0. 0. 0. 0. 0. 0. 1. 1. 1. 0.
      0. 0. 5. 5. 5. 0. 0. 0. 0. 0. 0. 0. 0. 0. 0. 0. 0. 1. 1. 1. 1. 1.
      1. 0. 0. 0. 3. 3. 3. 1. 1. 1. 0. 0. 0. 0. 0. 0. 1. 1. 1. 0. 0. 0.
      0. 0. 0. 0. 0. 0. 2. 2. 2. 3. 3. 3. 0. 0. 0. 0. 0. 0. 0. 0. 0. 1.
      1. 1. 2. 2. 2. 0. 0. 0. 0. 0. 0. 5. 5. 5. 1. 1. 1. 0. 0. 0. 0. 0.
      0. 1. 1. 1. 7. 7. 7. 87. 87. 87. 115. 115. 115. 158. 158. 158. 83.
      83. 83. 41. 41. 41. 38. 38. 38. 6. 6. 6. 0. 0. 0. 1. 1. 1. 3. 3.
      3. 0. 0. 0. 0. 0. 0. 2. 2. 2. 0. 0. 0. 0. 0. 0. 0. 0. 0. 1. 1. 1.
      0. 0. 0. 0. 0. 0. 124. 124. 124. 243. 243. 243. 241. 241. 241.
      253. 253. 253. 241. 241. 241. 226. 226. 226. 228. 228. 228. 161.
      161. 161. 116. 116. 116. 118. 118. 118. 120. 120. 120. 53. 53. 53.
      4. 4. 4. 0. 0. 0. 4. 4. 4. 0. 0. 0. 0. 0. 0. 3. 3. 3. 0. 0. 0. 93.
      93. 93. 254. 254. 254. 253. 253. 253. 251. 251. 251. 196. 196.
      196. 185. 185. 185. 189. 189. 189. 189. 189. 189. 231. 231. 231.
      255. 255. 255. 255. 255. 255. 254. 254. 254. 224. 224. 224. 68.
      68. 68. 0. 0. 0. 0. 0. 0. 1. 1. 1. 1. 1. 1. 0. 0. 0. 0. 0. 0. 109.
      109. 109. 255. 255. 255. 226. 226. 226. 112. 112. 112. 7. 7. 7. 0.
      0. 0. 0. 0. 0. 1. 1. 1. 59. 59. 59. 92. 92. 92. 133. 133. 133.
      200. 200. 200. 237. 237. 237. 221. 221. 221. 72. 72. 72. 0. 0. 0.
      1. 1. 1. 1. 1. 1. 0. 0. 0. 4. 4. 4. 108. 108. 108. 252. 252. 252.
      150. 150. 150. 2. 2. 2. 0. 0. 0. 0. 0. 0. 0. 0. 0. 0. 0. 0. 1. 1.
      1. 1. 1. 1. 2. 2. 2. 28. 28. 28. 93. 93. 93. 240. 240. 240. 200.
      200. 200. 2. 2. 2. 0. 0. 0. 1. 1. 1. 0. 0. 0. 0. 0. 0. 83. 83. 83.
      246. 246. 246. 211. 211. 211. 53. 53. 53. 0. 0. 0. 1. 1. 1. 0. 0.
      0. 2. 2. 2. 0. 0. 0. 0. 0. 0. 1. 1. 1. 0. 0. 0. 23. 23. 23. 208.
      208. 208. 222. 222. 222. 3. 3. 3. 2. 2. 2. 0. 0. 0. 3. 3. 3. 0. 0.
      0. 8. 8. 8. 195. 195. 195. 252. 252. 252. 219. 219. 219. 14. 14.
      14. 0. 0. 0. 1. 1. 1. 2. 2. 2. 0. 0. 0. 0. 0. 0. 0. 0. 0. 2. 2. 2.
      42. 42. 42. 219. 219. 219. 220. 220. 220. 0. 0. 0. 0. 0. 0. 0. 0.
      0. 2. 2. 2. 0. 0. 0. 0. 0. 0. 126. 126. 126. 249. 249. 249. 251.
      251. 251. 150. 150. 150. 58. 58. 58. 13. 13. 13. 0. 0. 0. 0. 0. 0.
      2. 2. 2. 4. 4. 4. 86. 86. 86. 188. 188. 188. 253. 253. 253. 208.
      208. 208. 4. 4. 4. 0. 0. 0. 0. 0. 0. 0. 0. 0. 3. 3. 3. 0. 0. 0. 7.
      7. 7. 136. 136. 136. 247. 247. 247. 254. 254. 254. 227. 227. 227.
      202. 202. 202. 110. 110. 110. 84. 84. 84. 85. 85. 85. 79. 79. 79.
      212. 212. 212. 255. 255. 255. 187. 187. 187. 61. 61. 61. 0. 0. 0.
      2. 2. 2. 0. 0. 0. 0. 0. 0. 0. 0. 0. 1. 1. 1. 0. 0. 0. 6. 6. 6.
      131. 131. 131. 216. 216. 216. 223. 223. 223. 252. 252. 252. 255.
      255. 255. 255. 255. 255. 255. 255. 255. 255. 255. 255. 230. 230.
      230. 128. 128. 128. 9. 9. 9. 0. 0. 0. 1. 1. 1. 0. 0. 0. 0. 0. 0.
      2. 2. 2. 0. 0. 0. 0. 0. 0. 0. 0. 0. 0. 0. 0. 0. 0. 0. 6. 6. 6. 28.
      28. 28. 113. 113. 113. 209. 209. 209. 228. 228. 228. 173. 173.
      173. 125. 125. 125. 39. 39. 39. 0. 0. 0. 0. 0. 0. 0. 0. 0. 0. 0.
      0. 0. 0. 0. 0. 0. 0. 0. 0. 0. 0. 0. 0. 0. 0. 0. 0. 0. 0. 0. 0. 0.
      0. 0. 0. 0. 0. 0. 0. 0. 0. 3. 3. 3. 36. 36. 36. 51. 51. 51. 20.
      20. 20. 0. 0. 0. 2. 2. 2. 1. 1. 1. 0. 0. 0. 0. 0. 0. 0. 0. 0. 0.
      0. 0. 0. 0. 0. 0. 0. 0. 0. 0. 0. 0. 0. 0. 0. 0. 0. 0. 0. 0. 0. 0.
      0. 0. 0. 0. 2. 2. 2. 0. 0. 0. 0. 0. 0. 1. 1. 1. 1. 1. 1. 0. 0. 0.
      0. 0. 0. 0. 0. 0. 0. 0. 0. 0. 0. 0. 0. 0. 0. 0. 0. 0. 0. 0. 0. 0.
      0. 0. 0. 0. 0. 0. 0. 0. 0. 0. 0. 0. 0. 0. 0. 0. 0. 0. 0. 0. 0. 0.
      0. 4. 4. 4. 0. 0. 0. 0. 0. 0. 2. 2. 2. 2. 2. 2. 0. 0. 0. 2. 2. 2.
      0. 0. 0. 0. 0. 0. 0. 0. 0. 0. 0. 0. 0. 0. 0. 0. 0. 0. 0. 0. 0. 0.
      0. 0. 0. 0. 0. 0. 0. 0. 0. 0. 0. 0. 0. 0. 0. 0. 0. 0. 0. 0. 0. 0.
      0. 1. 1. 1. 0. 0. 0. 0. 0. 0. 0. 0. 0. 0. 0. 0. 0. 0. 0. 0. 0. 0.
      0. 0. 0. 0. 0. 0.</_>
    <_>
      1. 1. 1. 0. 0. 0. 0. 0. 0. 0. 0. 0. 0. 0. 0. 1. 1. 1. 1. 1. 1. 0.
      0. 0. 0. 0. 0. 0. 0. 0. 2. 2. 2. 0. 0. 0. 1. 1. 1. 0. 0. 0. 0. 0.
      0. 0. 0. 0. 1. 1. 1. 0. 0. 0. 1. 1. 1. 0. 0. 0. 0. 0. 0. 0. 0. 0.
      0. 0. 0. 0. 0. 0. 0. 0. 0. 0. 0. 0. 0. 0. 0. 1. 1. 1. 1. 1. 1. 2.
      2. 2. 0. 0. 0. 1. 1. 1. 1. 1. 1. 0. 0. 0. 0. 0. 0. 3. 3. 3. 0. 0.
      0. 0. 0. 0. 1. 1. 1. 4. 4. 4. 0. 0. 0. 4. 4. 4. 0. 0. 0. 0. 0. 0.
      1. 1. 1. 2. 2. 2. 0. 0. 0. 2. 2. 2. 0. 0. 0. 48. 48. 48. 178. 178.
      178. 213. 213. 213. 62. 62. 62. 0. 0. 0. 1. 1. 1. 0. 0. 0. 1. 1.
      1. 1. 1. 1. 0. 0. 0. 0. 0. 0. 1. 1. 1. 0. 0. 0. 0. 0. 0. 2. 2. 2.
      0. 0. 0. 0. 0. 0. 3. 3. 3. 0. 0. 0. 33. 33. 33. 216. 216. 216.
      195. 195. 195. 93. 93. 93. 38. 38. 38. 1. 1. 1. 1. 1. 1. 2. 2. 2.
      0. 0. 0. 0. 0. 0. 2. 2. 2. 0. 0. 0. 1. 1. 1. 0. 0. 0. 1. 1. 1. 1.
      1. 1. 1. 1. 1. 0. 0. 0. 0. 0. 0. 14. 14. 14. 155. 155. 155. 227.
      227. 227. 31. 31. 31. 0. 0. 0. 0. 0. 0. 0. 0. 0. 106. 106. 106.
      25. 25. 25. 4. 4. 4. 1. 1. 1. 1. 1. 1. 2. 2. 2. 0. 0. 0. 1. 1. 1.
      4. 4. 4. 0. 0. 0. 0. 0. 0. 0. 0. 0. 1. 1. 1. 147. 147. 147. 243.
      243. 243. 69. 69. 69. 3. 3. 3. 0. 0. 0. 0. 0. 0. 1. 1. 1. 185.
      185. 185. 112. 112. 112. 0. 0. 0. 0. 0. 0. 0. 0. 0. 0. 0. 0. 0. 0.
      0. 0. 0. 0. 0. 0. 0. 0. 0. 0. 0. 0. 0. 1. 1. 1. 91. 91. 91. 251.
      251. 251. 122. 122. 122. 0. 0. 0. 0. 0. 0. 1. 1. 1. 3. 3. 3. 0. 0.
      0. 61. 61. 61. 185. 185. 185. 42. 42. 42. 0. 0. 0. 2. 2. 2. 0. 0.
      0. 1. 1. 1. 0. 0. 0. 2. 2. 2. 1. 1. 1. 1. 1. 1. 29. 29. 29. 219.
      219. 219. 184. 184. 184. 8. 8. 8. 2. 2. 2. 1. 1. 1. 0. 0. 0. 0. 0.
      0. 1. 1. 1. 1. 1. 1. 159. 159. 159. 169. 169. 169. 11. 11. 11. 0.
      0. 0. 1. 1. 1. 0. 0. 0. 0. 0. 0. 1. 1. 1. 4. 4. 4. 0. 0. 0. 152.
      152. 152. 223. 223. 223. 31. 31. 31. 2. 2. 2. 0. 0. 0. 0. 0. 0. 0.
      0. 0. 0. 0. 0. 0. 0. 0. 0. 0. 0. 26. 26. 26. 208. 208. 208. 71.
      71. 71. 0. 0. 0. 2. 2. 2. 2. 2. 2. 0. 0. 0. 1. 1. 1. 0. 0. 0. 93.
      93. 93. 251. 251. 251. 102. 102. 102. 1. 1. 1. 0. 0. 0. 0. 0. 0.
      1. 1. 1. 0. 0. 0. 0. 0. 0. 1. 1. 1. 1. 1. 1. 0. 0. 0. 165. 165.
      165. 154. 154. 154. 1. 1. 1. 0. 0. 0. 0. 0. 0. 2. 2. 2. 0. 0. 0.
      12. 12. 12. 188. 188. 188. 173. 173. 173. 9. 9. 9. 0. 0. 0. 2. 2.
      2. 0. 0. 0. 1. 1. 1. 0. 0. 0. 0. 0. 0. 0. 0. 0. 0. 0. 0. 4. 4. 4.
      160. 160. 160. 149. 149. 149. 0. 0. 0. 2. 2. 2. 2. 2. 2. 0. 0. 0.
      0. 0. 0. 88. 88. 88. 247. 247. 247. 55. 55. 55. 1. 1. 1. 3. 3. 3.
      0. 0. 0. 3. 3. 3. 0. 0. 0. 0. 0. 0. 0. 0. 0. 3. 3. 3. 0. 0. 0. 8.
      8. 8. 191. 191. 191. 84. 84. 84. 1. 1. 1. 0. 0. 0. 0. 0. 0. 0. 0.
      0. 3. 3. 3. 118. 118. 118. 223. 223. 223. 0. 0. 0. 2. 2. 2. 0. 0.
      0. 0. 0. 0. 1. 1. 1. 0. 0. 0. 0. 0. 0. 0. 0. 0. 0. 0. 0. 7. 7. 7.
      132. 132. 132. 206. 206. 206. 17. 17. 17. 5. 5. 5. 0. 0. 0. 1. 1.
      1. 0. 0. 0. 0. 0. 0. 89. 89. 89. 236. 236. 236. 68. 68. 68. 0. 0.
      0. 1. 1. 1. 1. 1. 1. 0. 0. 0. 2. 2. 2. 0. 0. 0. 4. 4. 4. 41. 41.
      41. 156. 156. 156. 185. 185. 185. 57. 57. 57. 0. 0. 0. 0. 0. 0. 0.
      0. 0. 0. 0. 0. 5. 5. 5. 0. 0. 0. 1. 1. 1. 151. 151. 151. 237. 237.
      237. 162. 162. 162. 48. 48. 48. 43. 43. 43. 99. 99. 99. 114. 114.
      114. 126. 126. 126. 193. 193. 193. 201. 201. 201. 96. 96. 96. 13.
      13. 13. 0. 0. 0. 0. 0. 0. 0. 0. 0. 2. 2. 2. 1. 1. 1. 0. 0. 0. 0.
      0. 0. 2. 2. 2. 11. 11. 11. 115. 115. 115. 198. 198. 198. 224. 224.
      224. 225. 225. 225. 226. 226. 226. 184. 184. 184. 143. 143. 143.
      120. 120. 120. 45. 45. 45. 0. 0. 0. 0. 0. 0. 1. 1. 1. 0. 0. 0. 2.
      2. 2. 0. 0. 0. 0. 0. 0. 0. 0. 0. 0. 0. 0. 1. 1. 1. 2. 2. 2. 0. 0.
      0. 16. 16. 16. 52. 52. 52. 60. 60. 60. 54. 54. 54. 6. 6. 6. 2. 2.
      2. 0. 0. 0. 0. 0. 0. 1. 1. 1. 0. 0. 0. 0. 0. 0. 0. 0. 0. 0. 0. 0.
      0. 0. 0. 0. 0. 0. 3. 3. 3. 1. 1. 1. 0. 0. 0. 1. 1. 1. 0. 0. 0. 0.
      0. 0. 4. 4. 4. 0. 0. 0. 4. 4. 4. 0. 0. 0. 0. 0. 0. 2. 2. 2. 0. 0.
      0. 0. 0. 0. 1. 1. 1. 0. 0. 0. 0. 0. 0. 0. 0. 0. 0. 0. 0. 1. 1. 1.
      2. 2. 2. 0. 0. 0. 0. 0. 0. 0. 0. 0. 1. 1. 1. 0. 0. 0. 0. 0. 0. 1.
      1. 1. 2. 2. 2. 4. 4. 4. 0. 0. 0. 2. 2. 2. 0. 0. 0. 0. 0. 0. 0. 0.
      0. 0. 0. 0. 0. 0. 0. 0. 0. 0. 0. 0. 0. 0. 0. 0. 0. 0. 0. 0. 0. 0.
      2. 2. 2. 1. 1. 1. 0. 0. 0. 0. 0. 0. 2. 2. 2. 2. 2. 2. 0. 0. 0. 1.
      1. 1. 0. 0. 0. 0. 0. 0. 0. 0. 0. 1. 1. 1. 0. 0. 0. 0. 0. 0. 0. 0.
      0. 0. 0. 0. 0. 0. 0.</_>
    <_>
      0. 0. 0. 3. 3. 3. 0. 0. 0. 1. 1. 1. 0. 0. 0. 1. 1. 1. 1. 1. 1. 0.
      0. 0. 0. 0. 0. 1. 1. 1. 0. 0. 0. 3. 3. 3. 0. 0. 0. 0. 0. 0. 1. 1.
      1. 0. 0. 0. 0. 0. 0. 3. 3. 3. 0. 0. 0. 1. 1. 1. 3. 3. 3. 0. 0. 0.
      0. 0. 0. 2. 2. 2. 0. 0. 0. 0. 0. 0. 0. 0. 0. 0. 0. 0. 1. 1. 1. 1.
      1. 1. 0. 0. 0. 0. 0. 0. 3. 3. 3. 0. 0. 0. 3. 3. 3. 0. 0. 0. 1. 1.
      1. 0. 0. 0. 0. 0. 0. 1. 1. 1. 0. 0. 0. 1. 1. 1. 1. 1. 1. 0. 0. 0.
      1. 1. 1. 1. 1. 1. 0. 0. 0. 2. 2. 2. 20. 20. 20. 116. 116. 116.
      165. 165. 165. 116. 116. 116. 16. 16. 16. 8. 8. 8. 0. 0. 0. 0. 0.
      0. 2. 2. 2. 0. 0. 0. 3. 3. 3. 4. 4. 4. 0. 0. 0. 3. 3. 3. 0. 0. 0.
      1. 1. 1. 0. 0. 0. 0. 0. 0. 0. 0. 0. 1. 1. 1. 29. 29. 29. 148. 148.
      148. 138. 138. 138. 185. 185. 185. 176. 176. 176. 69. 69. 69. 0.
      0. 0. 1. 1. 1. 0. 0. 0. 0. 0. 0. 1. 1. 1. 1. 1. 1. 0. 0. 0. 0. 0.
      0. 0. 0. 0. 2. 2. 2. 0. 0. 0. 4. 4. 4. 3. 3. 3. 0. 0. 0. 0. 0. 0.
      0. 0. 0. 2. 2. 2. 25. 25. 25. 106. 106. 106. 176. 176. 176. 106.
      106. 106. 6. 6. 6. 0. 0. 0. 1. 1. 1. 0. 0. 0. 0. 0. 0. 0. 0. 0. 0.
      0. 0. 2. 2. 2. 0. 0. 0. 0. 0. 0. 2. 2. 2. 0. 0. 0. 0. 0. 0. 2. 2.
      2. 0. 0. 0. 0. 0. 0. 0. 0. 0. 0. 0. 0. 48. 48. 48. 221. 221. 221.
      86. 86. 86. 0. 0. 0. 2. 2. 2. 2. 2. 2. 0. 0. 0. 2. 2. 2. 0. 0. 0.
      0. 0. 0. 0. 0. 0. 2. 2. 2. 0. 0. 0. 2. 2. 2. 1. 1. 1. 0. 0. 0. 0.
      0. 0. 0. 0. 0. 2. 2. 2. 0. 0. 0. 26. 26. 26. 184. 184. 184. 186.
      186. 186. 12. 12. 12. 0. 0. 0. 1. 1. 1. 0. 0. 0. 0. 0. 0. 0. 0. 0.
      2. 2. 2. 0. 0. 0. 1. 1. 1. 24. 24. 24. 59. 59. 59. 3. 3. 3. 0. 0.
      0. 2. 2. 2. 0. 0. 0. 0. 0. 0. 2. 2. 2. 0. 0. 0. 49. 49. 49. 210.
      210. 210. 57. 57. 57. 2. 2. 2. 0. 0. 0. 1. 1. 1. 2. 2. 2. 0. 0. 0.
      2. 2. 2. 0. 0. 0. 0. 0. 0. 81. 81. 81. 152. 152. 152. 6. 6. 6. 0.
      0. 0. 2. 2. 2. 0. 0. 0. 0. 0. 0. 0. 0. 0. 0. 0. 0. 0. 0. 0. 204.
      204. 204. 86. 86. 86. 1. 1. 1. 0. 0. 0. 0. 0. 0. 0. 0. 0. 0. 0. 0.
      0. 0. 0. 1. 1. 1. 14. 14. 14. 187. 187. 187. 152. 152. 152. 0. 0.
      0. 0. 0. 0. 0. 0. 0. 0. 0. 0. 0. 0. 0. 3. 3. 3. 2. 2. 2. 9. 9. 9.
      172. 172. 172. 44. 44. 44. 0. 0. 0. 1. 1. 1. 0. 0. 0. 0. 0. 0. 0.
      0. 0. 3. 3. 3. 0. 0. 0. 79. 79. 79. 231. 231. 231. 62. 62. 62. 3.
      3. 3. 1. 1. 1. 0. 0. 0. 0. 0. 0. 2. 2. 2. 0. 0. 0. 0. 0. 0. 89.
      89. 89. 173. 173. 173. 8. 8. 8. 0. 0. 0. 2. 2. 2. 0. 0. 0. 1. 1.
      1. 0. 0. 0. 0. 0. 0. 0. 0. 0. 84. 84. 84. 198. 198. 198. 13. 13.
      13. 0. 0. 0. 1. 1. 1. 0. 0. 0. 2. 2. 2. 0. 0. 0. 1. 1. 1. 19. 19.
      19. 197. 197. 197. 95. 95. 95. 0. 0. 0. 2. 2. 2. 0. 0. 0. 1. 1. 1.
      0. 0. 0. 0. 0. 0. 0. 0. 0. 0. 0. 0. 85. 85. 85. 209. 209. 209. 26.
      26. 26. 2. 2. 2. 0. 0. 0. 1. 1. 1. 0. 0. 0. 0. 0. 0. 1. 1. 1. 108.
      108. 108. 186. 186. 186. 6. 6. 6. 1. 1. 1. 0. 0. 0. 0. 0. 0. 1. 1.
      1. 0. 0. 0. 0. 0. 0. 0. 0. 0. 3. 3. 3. 52. 52. 52. 206. 206. 206.
      135. 135. 135. 0. 0. 0. 1. 1. 1. 0. 0. 0. 1. 1. 1. 1. 1. 1. 34.
      34. 34. 197. 197. 197. 67. 67. 67. 2. 2. 2. 1. 1. 1. 0. 0. 0. 1.
      1. 1. 0. 0. 0. 1. 1. 1. 3. 3. 3. 0. 0. 0. 0. 0. 0. 3. 3. 3. 71.
      71. 71. 218. 218. 218. 131. 131. 131. 35. 35. 35. 39. 39. 39. 45.
      45. 45. 107. 107. 107. 162. 162. 162. 64. 64. 64. 0. 0. 0. 0. 0.
      0. 0. 0. 0. 1. 1. 1. 2. 2. 2. 0. 0. 0. 0. 0. 0. 1. 1. 1. 0. 0. 0.
      3. 3. 3. 0. 0. 0. 9. 9. 9. 82. 82. 82. 210. 210. 210. 251. 251.
      251. 235. 235. 235. 203. 203. 203. 172. 172. 172. 76. 76. 76. 0.
      0. 0. 4. 4. 4. 0. 0. 0. 0. 0. 0. 1. 1. 1. 0. 0. 0. 0. 0. 0. 2. 2.
      2. 0. 0. 0. 1. 1. 1. 0. 0. 0. 3. 3. 3. 0. 0. 0. 1. 1. 1. 40. 40.
      40. 97. 97. 97. 69. 69. 69. 31. 31. 31. 4. 4. 4. 0. 0. 0. 0. 0. 0.
      1. 1. 1. 0. 0. 0. 0. 0. 0. 0. 0. 0. 0. 0. 0. 0. 0. 0. 0. 0. 0. 0.
      0. 0. 3. 3. 3. 0. 0. 0. 0. 0. 0. 2. 2. 2. 0. 0. 0. 3. 3. 3. 0. 0.
      0. 0. 0. 0. 0. 0. 0. 0. 0. 0. 0. 0. 0. 1. 1. 1. 0. 0. 0. 0. 0. 0.
      0. 0. 0. 0. 0. 0. 0. 0. 0. 0. 0. 0. 0. 0. 0. 0. 0. 0. 2. 2. 2. 1.
      1. 1. 0. 0. 0. 3. 3. 3. 1. 1. 1. 0. 0. 0. 0. 0. 0. 1. 1. 1. 2. 2.
      2. 1. 1. 1. 0. 0. 0. 0. 0. 0. 0. 0. 0. 0. 0. 0. 0. 0. 0. 0. 0. 0.
      0. 0. 0. 0. 0. 0. 2. 2. 2. 0. 0. 0. 0. 0. 0. 2. 2. 2. 0. 0. 0. 0.
      0. 0. 2. 2. 2. 3. 3. 3. 0. 0. 0. 0. 0. 0. 0. 0. 0. 0. 0. 0. 1. 1.
      1. 2. 2. 2. 0. 0. 0. 0. 0. 0. 0. 0. 0. 0. 0. 0. 0. 0. 0. 0. 0. 0.</_>
    <_>
      0. 0. 0. 0. 0. 0. 0. 0. 0. 1. 1. 1. 0. 0. 0. 0. 0. 0. 1. 1. 1. 0.
      0. 0. 1. 1. 1. 0. 0. 0. 0. 0. 0. 0. 0. 0. 0. 0. 0. 0. 0. 0. 0. 0.
      0. 0. 0. 0. 0. 0. 0. 0. 0. 0. 0. 0. 0. 0. 0. 0. 1. 1. 1. 2. 2. 2.
      1. 1. 1. 0. 0. 0. 0. 0. 0. 3. 3. 3. 0. 0. 0. 0. 0. 0. 0. 0. 0. 1.
      1. 1. 2. 2. 2. 0. 0. 0. 0. 0. 0. 3. 3. 3. 0. 0. 0. 1. 1. 1. 0. 0.
      0. 0. 0. 0. 0. 0. 0. 0. 0. 0. 0. 0. 0. 0. 0. 0. 3. 3. 3. 0. 0. 0.
      1. 1. 1. 0. 0. 0. 2. 2. 2. 0. 0. 0. 18. 18. 18. 19. 19. 19. 6. 6.
      6. 0. 0. 0. 0. 0. 0. 0. 0. 0. 1. 1. 1. 0. 0. 0. 0. 0. 0. 0. 0. 0.
      0. 0. 0. 0. 0. 0. 0. 0. 0. 0. 0. 0. 0. 0. 0. 4. 4. 4. 17. 17. 17.
      128. 128. 128. 66. 66. 66. 101. 101. 101. 196. 196. 196. 210. 210.
      210. 177. 177. 177. 61. 61. 61. 1. 1. 1. 0. 0. 0. 0. 0. 0. 2. 2.
      2. 0. 0. 0. 0. 0. 0. 0. 0. 0. 0. 0. 0. 3. 3. 3. 2. 2. 2. 0. 0. 0.
      0. 0. 0. 140. 140. 140. 255. 255. 255. 167. 167. 167. 77. 77. 77.
      71. 71. 71. 86. 86. 86. 206. 206. 206. 228. 228. 228. 57. 57. 57.
      1. 1. 1. 1. 1. 1. 0. 0. 0. 0. 0. 0. 0. 0. 0. 0. 0. 0. 0. 0. 0. 0.
      0. 0. 0. 0. 0. 1. 1. 1. 28. 28. 28. 218. 218. 218. 151. 151. 151.
      8. 8. 8. 0. 0. 0. 3. 3. 3. 0. 0. 0. 25. 25. 25. 189. 189. 189.
      233. 233. 233. 50. 50. 50. 0. 0. 0. 1. 1. 1. 0. 0. 0. 0. 0. 0. 0.
      0. 0. 0. 0. 0. 3. 3. 3. 0. 0. 0. 1. 1. 1. 84. 84. 84. 241. 241.
      241. 51. 51. 51. 1. 1. 1. 0. 0. 0. 0. 0. 0. 0. 0. 0. 6. 6. 6. 30.
      30. 30. 201. 201. 201. 216. 216. 216. 35. 35. 35. 1. 1. 1. 0. 0.
      0. 0. 0. 0. 0. 0. 0. 0. 0. 0. 0. 0. 0. 0. 0. 0. 1. 1. 1. 112. 112.
      112. 255. 255. 255. 23. 23. 23. 0. 0. 0. 1. 1. 1. 0. 0. 0. 2. 2.
      2. 0. 0. 0. 1. 1. 1. 32. 32. 32. 211. 211. 211. 190. 190. 190. 5.
      5. 5. 0. 0. 0. 0. 0. 0. 0. 0. 0. 0. 0. 0. 0. 0. 0. 0. 0. 0. 0. 0.
      0. 94. 94. 94. 247. 247. 247. 28. 28. 28. 1. 1. 1. 0. 0. 0. 0. 0.
      0. 0. 0. 0. 2. 2. 2. 0. 0. 0. 0. 0. 0. 70. 70. 70. 241. 241. 241.
      120. 120. 120. 0. 0. 0. 3. 3. 3. 0. 0. 0. 0. 0. 0. 0. 0. 0. 0. 0.
      0. 1. 1. 1. 66. 66. 66. 226. 226. 226. 28. 28. 28. 1. 1. 1. 1. 1.
      1. 2. 2. 2. 0. 0. 0. 0. 0. 0. 0. 0. 0. 1. 1. 1. 0. 0. 0. 118. 118.
      118. 244. 244. 244. 80. 80. 80. 0. 0. 0. 5. 5. 5. 0. 0. 0. 0. 0.
      0. 0. 0. 0. 0. 0. 0. 44. 44. 44. 219. 219. 219. 98. 98. 98. 0. 0.
      0. 0. 0. 0. 0. 0. 0. 0. 0. 0. 2. 2. 2. 1. 1. 1. 2. 2. 2. 2. 2. 2.
      1. 1. 1. 181. 181. 181. 234. 234. 234. 29. 29. 29. 0. 0. 0. 3. 3.
      3. 2. 2. 2. 1. 1. 1. 0. 0. 0. 5. 5. 5. 191. 191. 191. 171. 171.
      171. 0. 0. 0. 0. 0. 0. 0. 0. 0. 1. 1. 1. 0. 0. 0. 0. 0. 0. 0. 0.
      0. 0. 0. 0. 0. 0. 0. 58. 58. 58. 234. 234. 234. 133. 133. 133. 1.
      1. 1. 0. 0. 0. 0. 0. 0. 0. 0. 0. 1. 1. 1. 0. 0. 0. 174. 174. 174.
      208. 208. 208. 11. 11. 11. 1. 1. 1. 2. 2. 2. 2. 2. 2. 0. 0. 0. 1.
      1. 1. 2. 2. 2. 0. 0. 0. 0. 0. 0. 0. 0. 0. 162. 162. 162. 183. 183.
      183. 1. 1. 1. 1. 1. 1. 1. 1. 1. 0. 0. 0. 0. 0. 0. 1. 1. 1. 56. 56.
      56. 242. 242. 242. 82. 82. 82. 0. 0. 0. 0. 0. 0. 0. 0. 0. 5. 5. 5.
      0. 0. 0. 0. 0. 0. 1. 1. 1. 1. 1. 1. 8. 8. 8. 182. 182. 182. 115.
      115. 115. 3. 3. 3. 0. 0. 0. 0. 0. 0. 2. 2. 2. 0. 0. 0. 1. 1. 1. 4.
      4. 4. 199. 199. 199. 206. 206. 206. 24. 24. 24. 2. 2. 2. 0. 0. 0.
      2. 2. 2. 0. 0. 0. 0. 0. 0. 3. 3. 3. 38. 38. 38. 160. 160. 160.
      229. 229. 229. 33. 33. 33. 0. 0. 0. 0. 0. 0. 0. 0. 0. 0. 0. 0. 0.
      0. 0. 0. 0. 0. 3. 3. 3. 61. 61. 61. 221. 221. 221. 221. 221. 221.
      115. 115. 115. 94. 94. 94. 91. 91. 91. 110. 110. 110. 157. 157.
      157. 161. 161. 161. 202. 202. 202. 168. 168. 168. 49. 49. 49. 0.
      0. 0. 2. 2. 2. 0. 0. 0. 0. 0. 0. 2. 2. 2. 1. 1. 1. 0. 0. 0. 3. 3.
      3. 0. 0. 0. 38. 38. 38. 143. 143. 143. 206. 206. 206. 219. 219.
      219. 213. 213. 213. 185. 185. 185. 158. 158. 158. 125. 125. 125.
      62. 62. 62. 0. 0. 0. 0. 0. 0. 0. 0. 0. 0. 0. 0. 0. 0. 0. 2. 2. 2.
      0. 0. 0. 3. 3. 3. 0. 0. 0. 0. 0. 0. 3. 3. 3. 0. 0. 0. 1. 1. 1. 16.
      16. 16. 20. 20. 20. 17. 17. 17. 8. 8. 8. 0. 0. 0. 0. 0. 0. 1. 1.
      1. 0. 0. 0. 0. 0. 0. 0. 0. 0. 0. 0. 0. 0. 0. 0. 1. 1. 1. 0. 0. 0.
      1. 1. 1. 0. 0. 0. 0. 0. 0. 0. 0. 0. 1. 1. 1. 1. 1. 1. 0. 0. 0. 0.
      0. 0. 1. 1. 1. 2. 2. 2. 1. 1. 1. 0. 0. 0. 0. 0. 0. 1. 1. 1. 0. 0.
      0. 0. 0. 0. 0. 0. 0. 0. 0. 0. 0. 0. 0. 1. 1. 1. 0. 0. 0. 0. 0. 0.
      4. 4. 4. 1. 1. 1. 0. 0. 0. 0. 0. 0. 0. 0. 0. 1. 1. 1. 1. 1. 1. 0.
      0. 0. 0. 0. 0. 1. 1. 1. 0. 0. 0. 0. 0. 0. 0. 0. 0. 0. 0. 0. 0. 0.
      0. 0. 0. 0.</_>
    <_>
      2. 2. 2. 0. 0. 0. 0. 0. 0. 0. 0. 0. 1. 1. 1. 0. 0. 0. 0. 0. 0. 0.
      0. 0. 0. 0. 0. 0. 0. 0. 2. 2. 2. 0. 0. 0. 1. 1. 1. 0. 0. 0. 3. 3.
      3. 0. 0. 0. 0. 0. 0. 0. 0. 0. 1. 1. 1. 0. 0. 0. 0. 0. 0. 0. 0. 0.
      2. 2. 2. 0. 0. 0. 0. 0. 0. 2. 2. 2. 2. 2. 2. 1. 1. 1. 2. 2. 2. 3.
      3. 3. 0. 0. 0. 0. 0. 0. 2. 2. 2. 0. 0. 0. 1. 1. 1. 0. 0. 0. 2. 2.
      2. 0. 0. 0. 2. 2. 2. 1. 1. 1. 0. 0. 0. 2. 2. 2. 0. 0. 0. 0. 0. 0.
      1. 1. 1. 0. 0. 0. 0. 0. 0. 0. 0. 0. 0. 0. 0. 0. 0. 0. 0. 0. 0. 0.
      0. 0. 0. 0. 0. 1. 1. 1. 0. 0. 0. 3. 3. 3. 0. 0. 0. 0. 0. 0. 0. 0.
      0. 3. 3. 3. 0. 0. 0. 1. 1. 1. 0. 0. 0. 3. 3. 3. 0. 0. 0. 1. 1. 1.
      4. 4. 4. 2. 2. 2. 0. 0. 0. 0. 0. 0. 5. 5. 5. 1. 1. 1. 0. 0. 0. 0.
      0. 0. 0. 0. 0. 0. 0. 0. 0. 0. 0. 4. 4. 4. 1. 1. 1. 0. 0. 0. 1. 1.
      1. 0. 0. 0. 0. 0. 0. 0. 0. 0. 3. 3. 3. 0. 0. 0. 0. 0. 0. 0. 0. 0.
      0. 0. 0. 1. 1. 1. 0. 0. 0. 0. 0. 0. 2. 2. 2. 0. 0. 0. 0. 0. 0. 1.
      1. 1. 3. 3. 3. 0. 0. 0. 0. 0. 0. 0. 0. 0. 0. 0. 0. 0. 0. 0. 2. 2.
      2. 0. 0. 0. 0. 0. 0. 3. 3. 3. 5. 5. 5. 60. 60. 60. 98. 98. 98.
      126. 126. 126. 173. 173. 173. 156. 156. 156. 92. 92. 92. 42. 42.
      42. 2. 2. 2. 0. 0. 0. 0. 0. 0. 4. 4. 4. 0. 0. 0. 1. 1. 1. 0. 0. 0.
      0. 0. 0. 0. 0. 0. 2. 2. 2. 6. 6. 6. 8. 8. 8. 149. 149. 149. 251.
      251. 251. 254. 254. 254. 254. 254. 254. 255. 255. 255. 255. 255.
      255. 255. 255. 255. 235. 235. 235. 135. 135. 135. 80. 80. 80. 24.
      24. 24. 0. 0. 0. 1. 1. 1. 0. 0. 0. 1. 1. 1. 0. 0. 0. 2. 2. 2. 1.
      1. 1. 0. 0. 0. 141. 141. 141. 255. 255. 255. 247. 247. 247. 191.
      191. 191. 195. 195. 195. 179. 179. 179. 165. 165. 165. 123. 123.
      123. 185. 185. 185. 253. 253. 253. 254. 254. 254. 185. 185. 185.
      14. 14. 14. 0. 0. 0. 1. 1. 1. 2. 2. 2. 0. 0. 0. 0. 0. 0. 4. 4. 4.
      125. 125. 125. 254. 254. 254. 255. 255. 255. 219. 219. 219. 35.
      35. 35. 0. 0. 0. 1. 1. 1. 0. 0. 0. 0. 0. 0. 4. 4. 4. 147. 147.
      147. 255. 255. 255. 160. 160. 160. 5. 5. 5. 0. 0. 0. 0. 0. 0. 0.
      0. 0. 0. 0. 0. 3. 3. 3. 95. 95. 95. 254. 254. 254. 163. 163. 163.
      119. 119. 119. 121. 121. 121. 28. 28. 28. 0. 0. 0. 0. 0. 0. 1. 1.
      1. 0. 0. 0. 0. 0. 0. 65. 65. 65. 251. 251. 251. 126. 126. 126. 0.
      0. 0. 1. 1. 1. 4. 4. 4. 1. 1. 1. 1. 1. 1. 0. 0. 0. 137. 137. 137.
      255. 255. 255. 66. 66. 66. 0. 0. 0. 0. 0. 0. 3. 3. 3. 0. 0. 0. 6.
      6. 6. 0. 0. 0. 0. 0. 0. 0. 0. 0. 3. 3. 3. 184. 184. 184. 225. 225.
      225. 24. 24. 24. 0. 0. 0. 1. 1. 1. 0. 0. 0. 0. 0. 0. 11. 11. 11.
      185. 185. 185. 213. 213. 213. 7. 7. 7. 0. 0. 0. 3. 3. 3. 0. 0. 0.
      2. 2. 2. 0. 0. 0. 3. 3. 3. 4. 4. 4. 0. 0. 0. 1. 1. 1. 177. 177.
      177. 250. 250. 250. 33. 33. 33. 3. 3. 3. 0. 0. 0. 3. 3. 3. 0. 0.
      0. 27. 27. 27. 228. 228. 228. 174. 174. 174. 2. 2. 2. 0. 0. 0. 0.
      0. 0. 0. 0. 0. 3. 3. 3. 1. 1. 1. 0. 0. 0. 0. 0. 0. 0. 0. 0. 67.
      67. 67. 253. 253. 253. 177. 177. 177. 8. 8. 8. 0. 0. 0. 0. 0. 0.
      0. 0. 0. 2. 2. 2. 28. 28. 28. 243. 243. 243. 173. 173. 173. 9. 9.
      9. 3. 3. 3. 0. 0. 0. 1. 1. 1. 0. 0. 0. 0. 0. 0. 2. 2. 2. 1. 1. 1.
      24. 24. 24. 215. 215. 215. 233. 233. 233. 39. 39. 39. 0. 0. 0. 1.
      1. 1. 0. 0. 0. 2. 2. 2. 0. 0. 0. 3. 3. 3. 162. 162. 162. 254. 254.
      254. 112. 112. 112. 0. 0. 0. 3. 3. 3. 0. 0. 0. 1. 1. 1. 1. 1. 1.
      2. 2. 2. 36. 36. 36. 181. 181. 181. 255. 255. 255. 154. 154. 154.
      1. 1. 1. 0. 0. 0. 0. 0. 0. 5. 5. 5. 0. 0. 0. 0. 0. 0. 2. 2. 2. 48.
      48. 48. 194. 194. 194. 193. 193. 193. 64. 64. 64. 0. 0. 0. 1. 1.
      1. 0. 0. 0. 23. 23. 23. 94. 94. 94. 186. 186. 186. 214. 214. 214.
      189. 189. 189. 20. 20. 20. 0. 0. 0. 2. 2. 2. 0. 0. 0. 1. 1. 1. 0.
      0. 0. 1. 1. 1. 0. 0. 0. 1. 1. 1. 15. 15. 15. 30. 30. 30. 24. 24.
      24. 7. 7. 7. 0. 0. 0. 3. 3. 3. 20. 20. 20. 32. 32. 32. 27. 27. 27.
      21. 21. 21. 14. 14. 14. 1. 1. 1. 0. 0. 0. 0. 0. 0. 0. 0. 0. 0. 0.
      0. 1. 1. 1. 1. 1. 1. 0. 0. 0. 0. 0. 0. 0. 0. 0. 1. 1. 1. 0. 0. 0.
      0. 0. 0. 0. 0. 0. 0. 0. 0. 0. 0. 0. 2. 2. 2. 0. 0. 0. 0. 0. 0. 2.
      2. 2. 0. 0. 0. 0. 0. 0. 0. 0. 0. 0. 0. 0. 0. 0. 0. 0. 0. 0. 0. 0.
      0. 0. 0. 0. 1. 1. 1. 0. 0. 0. 0. 0. 0. 0. 0. 0. 2. 2. 2. 2. 2. 2.
      0. 0. 0. 1. 1. 1. 1. 1. 1. 0. 0. 0. 0. 0. 0. 2. 2. 2. 0. 0. 0. 0.
      0. 0. 0. 0. 0. 0. 0. 0. 0. 0. 0. 0. 0. 0. 0. 0. 0. 0. 0. 0. 0. 0.
      0. 1. 1. 1. 3. 3. 3. 2. 2. 2. 0. 0. 0. 0. 0. 0. 0. 0. 0. 0. 0. 0.
      0. 0. 0. 0. 0. 0. 0. 0. 0. 0. 0. 0. 0. 0. 0. 0. 0. 0. 0. 0. 0. 0.
      0. 0. 0. 0. 0.</_>
    <_>
      1. 1. 1. 0. 0. 0. 2. 2. 2. 0. 0. 0. 1. 1. 1. 0. 0. 0. 3. 3. 3. 0.
      0. 0. 1. 1. 1. 0. 0. 0. 0. 0. 0. 0. 0. 0. 1. 1. 1. 1. 1. 1. 0. 0.
      0. 1. 1. 1. 1. 1. 1. 1. 1. 1. 0. 0. 0. 0. 0. 0. 0. 0. 0. 0. 0. 0.
      0. 0. 0. 1. 1. 1. 2. 2. 2. 0. 0. 0. 0. 0. 0. 0. 0. 0. 0. 0. 0. 0.
      0. 0. 2. 2. 2. 2. 2. 2. 0. 0. 0. 1. 1. 1. 0. 0. 0. 0. 0. 0. 0. 0.
      0. 0. 0. 0. 0. 0. 0. 1. 1. 1. 4. 4. 4. 0. 0. 0. 3. 3. 3. 0. 0. 0.
      0. 0. 0. 0. 0. 0. 5. 5. 5. 0. 0. 0. 0. 0. 0. 0. 0. 0. 0. 0. 0. 1.
      1. 1. 0. 0. 0. 0. 0. 0. 4. 4. 4. 0. 0. 0. 5. 5. 5. 1. 1. 1. 0. 0.
      0. 0. 0. 0. 0. 0. 0. 2. 2. 2. 2. 2. 2. 0. 0. 0. 0. 0. 0. 4. 4. 4.
      0. 0. 0. 0. 0. 0. 5. 5. 5. 0. 0. 0. 55. 55. 55. 56. 56. 56. 74.
      74. 74. 45. 45. 45. 0. 0. 0. 0. 0. 0. 0. 0. 0. 0. 0. 0. 2. 2. 2.
      3. 3. 3. 1. 1. 1. 0. 0. 0. 0. 0. 0. 0. 0. 0. 1. 1. 1. 0. 0. 0. 24.
      24. 24. 94. 94. 94. 125. 125. 125. 172. 172. 172. 216. 216. 216.
      189. 189. 189. 202. 202. 202. 206. 206. 206. 130. 130. 130. 7. 7.
      7. 1. 1. 1. 1. 1. 1. 0. 0. 0. 3. 3. 3. 0. 0. 0. 0. 0. 0. 1. 1. 1.
      0. 0. 0. 18. 18. 18. 146. 146. 146. 240. 240. 240. 243. 243. 243.
      202. 202. 202. 239. 239. 239. 161. 161. 161. 0. 0. 0. 8. 8. 8. 83.
      83. 83. 232. 232. 232. 71. 71. 71. 0. 0. 0. 4. 4. 4. 0. 0. 0. 0.
